{"learner":{"attributes":{"scikit_learn":"{\"_estimator_type\": \"regressor\"}"},"feature_names":[],"feature_types":[],"gradient_booster":{"model":{"gbtree_model_param":{"num_parallel_tree":"1","num_trees":"100"},"iteration_indptr":[0,1,2,3,4,5,6,7,8,9,10,11,12,13,14,15,16,17,18,19,20,21,22,23,24,25,26,27,28,29,30,31,32,33,34,35,36,37,38,39,40,41,42,43,44,45,46,47,48,49,50,51,52,53,54,55,56,57,58,59,60,61,62,63,64,65,66,67,68,69,70,71,72,73,74,75,76,77,78,79,80,81,82,83,84,85,86,87,88,89,90,91,92,93,94,95,96,97,98,99,100],"tree_info":[0,0,0,0,0,0,0,0,0,0,0,0,0,0,0,0,0,0,0,0,0,0,0,0,0,0,0,0,0,0,0,0,0,0,0,0,0,0,0,0,0,0,0,0,0,0,0,0,0,0,0,0,0,0,0,0,0,0,0,0,0,0,0,0,0,0,0,0,0,0,0,0,0,0,0,0,0,0,0,0,0,0,0,0,0,0,0,0,0,0,0,0,0,0,0,0,0,0,0,0],"trees":[{"base_weights":[-2.4456426E-8,-2.4100095E-2,3.378092E-2,-7.937674E-2,-1.5775124E-2,4.53971E-3,6.1841287E-2,-2.5361148E-1,-5.0728895E-2,-4.7937543E-3,-4.2966668E-2,-1.7971411E-1,1.108063E-2,7.03785E-2,-4.9625047E-2,1.3881148E-3,-3.216414E-1,-1.4769524E-1,-1.7237045E-2,-3.1239754E-2,2.2189593E-2,-3.5400745E-2,-1.8847525E-1,1.0814672E-2,-3.0853575E-2,-2.2593493E-2,4.9811255E-2,8.391844E-2,-6.2002367E-3,-2.7365774E-1,3.2364435E-2,-3.5256412E-2,9.254098E-4,-1.9384326E-1,-3.1168818E-2,-1.6813171E-1,1.8941164E-3,2.565353E-2,-4.9564272E-2,-5.0719194E-2,3.6395106E-2,-4.7374204E-2,3.0629648E-2,-2.848781E-1,2.7348563E-2,-5.8131844E-2,7.6156296E-2,-1.5714064E-2,-2.2032999E-1,9.815727E-2,1.0054731E-2,4.4045165E-2,1.1784043E-1,-1.8807251E-2,1.72757E-2,-3.3209097E-2,9.254098E-4,-7.545804E-3,6.0859114E-2,-2.27698E-2,4.0044743E-3,-1.0399143E-2,3.3323038E-3,-2.2012135E-2,-8.108537E-4,1.6015256E-3,-9.895577E-3,3.6225908E-3,-2.013935E-2,-3.7997614E-3,-1.6247729E-2,-1.54138375E-2,-9.0498634E-4,3.8569581E-3,-2.1338401E-2,-4.0293764E-3,-2.044681E-2,4.375811E-3,-6.892702E-3,-1.1113918E-2,-3.3214584E-2,3.608814E-3,1.2405992E-3,-8.327223E-3,-3.9255322E-4,9.143504E-3,2.2799403E-3,3.734293E-3,-3.7292507E-3,-2.8003955E-2,9.254098E-4,3.8072377E-4,1.2216563E-2,-8.489551E-4,1.0502896E-2,-2.4340511E-3,7.3289624E-3,-5.7858806E-3,1.210885E-2,-3.1348919E-3,6.044675E-3,1.5195494E-2,3.3013567E-3],"categories":[],"categories_nodes":[],"categories_segments":[],"categories_sizes":[],"default_left":[0,0,0,0,0,0,0,0,0,0,0,0,0,0,0,0,0,0,0,0,0,0,0,0,0,0,0,0,0,0,0,0,0,0,0,0,0,0,0,0,0,0,0,0,0,0,0,0,0,0,0,0,0,0,0,0,0,0,0,0,0,0,0,0,0,0,0,0,0,0,0,0,0,0,0,0,0,0,0,0,0,0,0,0,0,0,0,0,0,0,0,0,0,0,0,0,0,0,0,0,0,0,0],"id":0,"left_children":[1,3,5,7,9,11,13,15,17,19,21,23,25,27,29,-1,31,33,35,37,39,41,43,45,-1,47,49,51,53,55,57,-1,-1,59,61,63,65,67,69,71,73,75,77,79,81,83,85,87,89,91,93,95,97,-1,99,-1,-1,-1,101,-1,-1,-1,-1,-1,-1,-1,-1,-1,-1,-1,-1,-1,-1,-1,-1,-1,-1,-1,-1,-1,-1,-1,-1,-1,-1,-1,-1,-1,-1,-1,-1,-1,-1,-1,-1,-1,-1,-1,-1,-1,-1,-1,-1],"loss_changes":[1.1536125E0,3.793137E-1,4.838255E-1,5.262112E-1,2.147863E-1,3.5149634E-1,2.8992748E-1,2.7742726E-1,3.0272692E-1,3.6748442E-1,2.2121549E-1,2.48779E-1,3.6761114E-1,2.9084444E-1,4.1295993E-1,0E0,1.260488E-1,1.2301725E-1,2.0528056E-1,2.7233243E-1,2.659511E-1,1.5799229E-1,2.158513E-1,2.6952494E-2,0E0,2.0194516E-1,2.5080422E-1,3.1672394E-1,1.868428E-1,1.0226187E-1,5.6822542E-2,0E0,0E0,1.4372772E-1,4.1037038E-2,6.47715E-2,9.272819E-2,1.60923E-1,2.511134E-1,1.796002E-1,1.2446177E-1,1.786266E-1,4.353393E-2,2.0571291E-2,7.465808E-5,3.7614154E-3,3.6101416E-4,1.6969104E-1,7.113333E-2,1.3318104E-1,1.2946136E-1,2.2377303E-1,8.005357E-2,0E0,8.3762795E-2,0E0,0E0,0E0,3.0496005E-2,0E0,0E0,0E0,0E0,0E0,0E0,0E0,0E0,0E0,0E0,0E0,0E0,0E0,0E0,0E0,0E0,0E0,0E0,0E0,0E0,0E0,0E0,0E0,0E0,0E0,0E0,0E0,0E0,0E0,0E0,0E0,0E0,0E0,0E0,0E0,0E0,0E0,0E0,0E0,0E0,0E0,0E0,0E0,0E0],"parents":[2147483647,0,0,1,1,2,2,3,3,4,4,5,5,6,6,7,7,8,8,9,9,10,10,11,11,12,12,13,13,14,14,16,16,17,17,18,18,19,19,20,20,21,21,22,22,23,23,25,25,26,26,27,27,28,28,29,29,30,30,33,33,34,34,35,35,36,36,37,37,38,38,39,39,40,40,41,41,42,42,43,43,44,44,45,45,46,46,47,47,48,48,49,49,50,50,51,51,52,52,54,54,58,58],"right_children":[2,4,6,8,10,12,14,16,18,20,22,24,26,28,30,-1,32,34,36,38,40,42,44,46,-1,48,50,52,54,56,58,-1,-1,60,62,64,66,68,70,72,74,76,78,80,82,84,86,88,90,92,94,96,98,-1,100,-1,-1,-1,102,-1,-1,-1,-1,-1,-1,-1,-1,-1,-1,-1,-1,-1,-1,-1,-1,-1,-1,-1,-1,-1,-1,-1,-1,-1,-1,-1,-1,-1,-1,-1,-1,-1,-1,-1,-1,-1,-1,-1,-1,-1,-1,-1,-1],"split_conditions":[6.363636E-1,9.090909E-2,6.58515E-1,3.3333334E-1,8.333333E-1,3.3333335E-2,1E0,4.2047983E-1,5.428777E-1,6.666667E-1,9.6666664E-1,6.013108E-1,5.3333336E-1,1E0,5.7417977E-1,1.3881148E-3,5E-1,7.0358986E-1,3.8874227E-1,4.7968498E-1,1.6666667E-1,7.531382E-1,7.159189E-1,8.181818E-1,-3.0853575E-2,8.6630756E-1,6.666667E-1,8.181818E-1,4.152592E-1,1E0,2.7920848E-1,-3.5256412E-2,9.254098E-4,7.443658E-1,5.254147E-1,6.423093E-1,7.599705E-1,9.3333334E-1,9.3333334E-1,5.619237E-1,8.928756E-1,7.9426086E-1,8.333333E-1,6.666667E-1,3.3333334E-1,6.666667E-1,2.124289E-1,1.6666667E-1,9.0909094E-1,5.510986E-1,7.643324E-1,5.8633816E-1,1.6862208E-1,-1.8807251E-2,6.666667E-1,-3.3209097E-2,9.254098E-4,-7.545804E-3,3.9272478E-1,-2.27698E-2,4.0044743E-3,-1.0399143E-2,3.3323038E-3,-2.2012135E-2,-8.108537E-4,1.6015256E-3,-9.895577E-3,3.6225908E-3,-2.013935E-2,-3.7997614E-3,-1.6247729E-2,-1.54138375E-2,-9.0498634E-4,3.8569581E-3,-2.1338401E-2,-4.0293764E-3,-2.044681E-2,4.375811E-3,-6.892702E-3,-1.1113918E-2,-3.3214584E-2,3.608814E-3,1.2405992E-3,-8.327223E-3,-3.9255322E-4,9.143504E-3,2.2799403E-3,3.734293E-3,-3.7292507E-3,-2.8003955E-2,9.254098E-4,3.8072377E-4,1.2216563E-2,-8.489551E-4,1.0502896E-2,-2.4340511E-3,7.3289624E-3,-5.7858806E-3,1.210885E-2,-3.1348919E-3,6.044675E-3,1.5195494E-2,3.3013567E-3],"split_indices":[150,108,154,110,29,198,29,147,91,5,9,0,156,115,28,0,2,49,56,7,86,28,196,3,0,77,22,101,70,3,112,0,0,7,126,84,147,170,135,147,112,84,198,5,1,1,0,86,3,175,105,7,35,0,194,0,0,0,126,0,0,0,0,0,0,0,0,0,0,0,0,0,0,0,0,0,0,0,0,0,0,0,0,0,0,0,0,0,0,0,0,0,0,0,0,0,0,0,0,0,0,0,0],"split_type":[0,0,0,0,0,0,0,0,0,0,0,0,0,0,0,0,0,0,0,0,0,0,0,0,0,0,0,0,0,0,0,0,0,0,0,0,0,0,0,0,0,0,0,0,0,0,0,0,0,0,0,0,0,0,0,0,0,0,0,0,0,0,0,0,0,0,0,0,0,0,0,0,0,0,0,0,0,0,0,0,0,0,0,0,0,0,0,0,0,0,0,0,0,0,0,0,0,0,0,0,0,0,0],"sum_hessian":[1.415E3,8.26E2,5.89E2,1.07E2,7.19E2,2.89E2,3E2,1.4E1,9.3E1,5.13E2,2.06E2,9E0,2.8E2,2.79E2,2.1E1,3E0,1.1E1,2.3E1,7E1,2.59E2,2.54E2,1.97E2,9E0,4E0,5E0,1.5E2,1.3E2,2.37E2,4.2E1,5E0,1.6E1,1E1,1E0,1.6E1,7E0,7E0,6.3E1,6.3E1,1.96E2,4.1E1,2.13E2,1.67E2,3E1,6E0,3E0,2E0,2E0,1.46E2,4E0,5.8E1,7.2E1,1.1E2,1.27E2,4E0,3.8E1,4E0,1E0,3E0,1.3E1,1.4E1,2E0,3E0,4E0,5E0,2E0,5.6E1,7E0,6.1E1,2E0,1.79E2,1.7E1,1.1E1,3E1,2.12E2,1E0,1.61E2,6E0,2.7E1,3E0,2E0,4E0,1E0,2E0,1E0,1E0,1E0,1E0,4.2E1,1.04E2,3E0,1E0,1.2E1,4.6E1,6.1E1,1.1E1,3.3E1,7.7E1,2E0,1.25E2,1.8E1,2E1,2E0,1.1E1],"tree_param":{"num_deleted":"0","num_feature":"210","num_nodes":"103","size_leaf_vector":"1"}},{"base_weights":[-2.0180199E-4,-2.1964245E-2,3.0302845E-2,-7.22714E-2,-1.4387665E-2,2.000721E-3,5.401397E-2,-2.3044653E-1,-4.6261843E-2,2.5542876E-2,-2.1785302E-2,-2.3088333E-1,1.0915816E-2,2.1451917E-2,7.208768E-2,1.2840048E-3,-2.923382E-1,-1.3400206E-1,-1.5951604E-2,3.5369504E-2,-1.2831317E-1,-5.4486755E-2,-1.2425637E-2,-2.551343E-2,-6.31243E-4,2.709671E-2,-7.1747705E-2,-4.641196E-2,6.206231E-2,2.273366E-2,8.818007E-2,-3.2051284E-2,8.791387E-4,-2.0023927E-1,-6.255217E-2,-1.5417142E-1,1.5751161E-3,4.0590618E-2,-1.5915932E-1,-2.645774E-2,4.0029347E-2,-3.4648165E-2,-1.4039062E-1,-3.226532E-2,4.309391E-3,6.668098E-2,1.1039983E-2,-3.1090964E-2,-3.2097194E-2,-7.875707E-3,-2.489785E-1,-2.3192069E-2,6.936653E-2,-5.561361E-2,4.2711906E-2,1.22301705E-1,5.2927934E-2,-5.9510707E-3,-2.076227E-2,-3.800258E-4,-1.937939E-2,-2.017779E-2,-7.567962E-4,1.4441836E-3,-9.029715E-3,5.5977255E-3,-3.6887978E-3,-3.6024184E-3,-2.027148E-2,-4.5283735E-4,5.6391377E-3,-5.4307585E-3,3.1711755E-3,-1.8763596E-2,7.902503E-4,-2.2527366E-3,-1.3255944E-2,2.0969692E-3,-3.98659E-3,1.8534688E-3,1.0227586E-2,3.2687814E-3,-2.5471465E-3,4.0197806E-3,-1.0650787E-2,-1.14757335E-2,3.991893E-3,-2.9276421E-2,-9.300946E-3,9.759101E-3,-8.8966667E-4,5.8794725E-3,-1.0586607E-2,5.4988577E-3,-5.9133135E-3,1.3390908E-2,1.8433047E-3,6.843245E-3,-7.3543624E-3],"categories":[],"categories_nodes":[],"categories_segments":[],"categories_sizes":[],"default_left":[0,0,0,0,0,0,0,0,0,0,0,0,0,0,0,0,0,0,0,0,0,0,0,0,0,0,0,0,0,0,0,0,0,0,0,0,0,0,0,0,0,0,0,0,0,0,0,0,0,0,0,0,0,0,0,0,0,0,0,0,0,0,0,0,0,0,0,0,0,0,0,0,0,0,0,0,0,0,0,0,0,0,0,0,0,0,0,0,0,0,0,0,0,0,0,0,0,0,0],"id":1,"left_children":[1,3,5,7,9,11,13,15,17,19,21,23,25,27,29,-1,31,33,35,37,39,41,43,-1,-1,45,47,49,51,53,55,-1,-1,57,59,61,63,65,67,-1,69,71,73,75,77,79,81,-1,83,85,87,-1,89,91,93,95,97,-1,-1,-1,-1,-1,-1,-1,-1,-1,-1,-1,-1,-1,-1,-1,-1,-1,-1,-1,-1,-1,-1,-1,-1,-1,-1,-1,-1,-1,-1,-1,-1,-1,-1,-1,-1,-1,-1,-1,-1,-1,-1],"loss_changes":[9.406852E-1,3.1417635E-1,3.9582628E-1,4.3365818E-1,2.1323846E-1,5.6308985E-1,1.873675E-1,2.2961473E-1,2.4784854E-1,1.7538153E-1,1.8541637E-1,5.2850008E-2,3.510498E-1,3.2257396E-1,1.6160572E-1,0E0,1.0462844E-1,1.0105798E-1,1.7224318E-1,1.15135685E-1,1.711643E-1,2.2520429E-1,1.575154E-1,0E0,0E0,1.3845891E-1,3.9778507E-1,3.4150994E-1,1.7284161E-1,8.3767906E-2,1.7997015E-1,0E0,0E0,1.12980604E-4,9.950266E-2,5.4307163E-2,7.695812E-2,1.2723908E-1,8.786999E-3,0E0,3.1715808E-3,1.4653249E-1,1.7663676E-1,2.0894901E-1,1.9071718E-1,1.0607129E-1,1.249244E-1,0E0,2.0870312E-1,1.9869897E-1,2.057463E-2,0E0,1.5991178E-1,6.946668E-2,5.5764988E-2,9.157181E-2,1.5798143E-1,0E0,0E0,0E0,0E0,0E0,0E0,0E0,0E0,0E0,0E0,0E0,0E0,0E0,0E0,0E0,0E0,0E0,0E0,0E0,0E0,0E0,0E0,0E0,0E0,0E0,0E0,0E0,0E0,0E0,0E0,0E0,0E0,0E0,0E0,0E0,0E0,0E0,0E0,0E0,0E0,0E0,0E0],"parents":[2147483647,0,0,1,1,2,2,3,3,4,4,5,5,6,6,7,7,8,8,9,9,10,10,11,11,12,12,13,13,14,14,16,16,17,17,18,18,19,19,20,20,21,21,22,22,25,25,26,26,27,27,28,28,29,29,30,30,33,33,34,34,35,35,36,36,37,37,38,38,40,40,41,41,42,42,43,43,44,44,45,45,46,46,48,48,49,49,50,50,52,52,53,53,54,54,55,55,56,56],"right_children":[2,4,6,8,10,12,14,16,18,20,22,24,26,28,30,-1,32,34,36,38,40,42,44,-1,-1,46,48,50,52,54,56,-1,-1,58,60,62,64,66,68,-1,70,72,74,76,78,80,82,-1,84,86,88,-1,90,92,94,96,98,-1,-1,-1,-1,-1,-1,-1,-1,-1,-1,-1,-1,-1,-1,-1,-1,-1,-1,-1,-1,-1,-1,-1,-1,-1,-1,-1,-1,-1,-1,-1,-1,-1,-1,-1,-1,-1,-1,-1,-1,-1,-1],"split_conditions":[6.363636E-1,9.090909E-2,6.416904E-1,3.3333334E-1,4.4129708E-1,6.666667E-2,6.58515E-1,4.2047983E-1,5.428777E-1,7.575519E-1,5.112045E-1,1.3333334E-1,7.7958703E-1,6.406649E-1,5.9111106E-1,1.2840048E-3,5E-1,6.425202E-1,3.8874227E-1,1E0,6.147712E-1,7.0606196E-1,6.666667E-1,-2.551343E-2,-6.31243E-4,6.1517197E-1,5.304423E-1,6.080268E-1,1.884214E-1,5.600381E-1,6.8107665E-1,-3.2051284E-2,8.791387E-4,3.9227977E-1,7.156197E-1,6.423093E-1,7.599705E-1,8E-1,5.089538E-1,-2.645774E-2,3.3333334E-1,7.1908164E-1,8E-1,9.3333334E-1,8.333333E-1,5.3333336E-1,7.311413E-1,-3.1090964E-2,6.691E-1,5.5811137E-1,6.756331E-1,-2.3192069E-2,8.333333E-1,6.33068E-1,5.7746065E-1,8.092678E-1,1E0,-5.9510707E-3,-2.076227E-2,-3.800258E-4,-1.937939E-2,-2.017779E-2,-7.567962E-4,1.4441836E-3,-9.029715E-3,5.5977255E-3,-3.6887978E-3,-3.6024184E-3,-2.027148E-2,-4.5283735E-4,5.6391377E-3,-5.4307585E-3,3.1711755E-3,-1.8763596E-2,7.902503E-4,-2.2527366E-3,-1.3255944E-2,2.0969692E-3,-3.98659E-3,1.8534688E-3,1.0227586E-2,3.2687814E-3,-2.5471465E-3,4.0197806E-3,-1.0650787E-2,-1.14757335E-2,3.991893E-3,-2.9276421E-2,-9.300946E-3,9.759101E-3,-8.8966667E-4,5.8794725E-3,-1.0586607E-2,5.4988577E-3,-5.9133135E-3,1.3390908E-2,1.8433047E-3,6.843245E-3,-7.3543624E-3],"split_indices":[150,108,203,110,77,198,154,147,91,133,203,2,140,175,7,0,2,35,56,170,161,49,5,0,0,91,35,175,196,56,63,0,0,7,70,84,147,44,0,0,5,77,142,135,29,205,42,0,77,168,42,0,29,35,7,189,80,0,0,0,0,0,0,0,0,0,0,0,0,0,0,0,0,0,0,0,0,0,0,0,0,0,0,0,0,0,0,0,0,0,0,0,0,0,0,0,0,0,0],"split_type":[0,0,0,0,0,0,0,0,0,0,0,0,0,0,0,0,0,0,0,0,0,0,0,0,0,0,0,0,0,0,0,0,0,0,0,0,0,0,0,0,0,0,0,0,0,0,0,0,0,0,0,0,0,0,0,0,0,0,0,0,0,0,0,0,0,0,0,0,0,0,0,0,0,0,0,0,0,0,0,0,0,0,0,0,0,0,0,0,0,0,0,0,0,0,0,0,0,0,0],"sum_hessian":[1.415E3,8.26E2,5.89E2,1.07E2,7.19E2,2.69E2,3.2E2,1.4E1,9.3E1,1.12E2,6.07E2,9E0,2.6E2,1.15E2,2.05E2,3E0,1.1E1,2.3E1,7E1,1.06E2,6E0,1.34E2,4.73E2,8E0,1E0,2.18E2,4.2E1,4.3E1,7.2E1,5.1E1,1.54E2,1E1,1E0,1.1E1,1.2E1,7E0,6.3E1,1.04E2,2E0,3E0,3E0,1.1E2,2.4E1,2.16E2,2.57E2,6.2E1,1.56E2,5E0,3.7E1,3.7E1,6E0,1E0,7.1E1,1E1,4.1E1,7.7E1,7.7E1,1E0,1E1,9E0,3E0,5E0,2E0,5.6E1,7E0,8.7E1,1.7E1,1E0,1E0,1E0,2E0,8.5E1,2.5E1,1.8E1,6E0,1.98E2,1.8E1,1.87E2,7E1,2.7E1,3.5E1,9.8E1,5.8E1,1.9E1,1.8E1,1.1E1,2.6E1,4E0,2E0,5.2E1,1.9E1,3E0,7E0,3.7E1,4E0,6.9E1,8E0,6.9E1,8E0],"tree_param":{"num_deleted":"0","num_feature":"210","num_nodes":"99","size_leaf_vector":"1"}},{"base_weights":[-3.8471926E-4,-1.9992411E-2,2.7099935E-2,-6.601538E-2,-1.30612E-2,2.835613E-3,5.038749E-2,-2.0939444E-1,-4.2433444E-2,2.2605978E-2,-1.9668652E-2,-1.0333171E-2,6.781541E-2,3.0030042E-2,8.810206E-2,1.1877045E-3,-2.6570207E-1,-1.2253822E-1,-1.4758121E-2,3.162729E-2,-1.1852063E-1,-4.9187947E-2,-1.1219761E-2,-1.3464488E-1,-9.365682E-4,1.1309698E-1,1.9821225E-2,3.946075E-2,-1.5027021E-1,1.23229735E-1,4.21311E-2,-2.9137531E-2,8.351803E-4,-1.6607817E-1,-3.1518504E-2,-1.413711E-1,1.2990972E-3,-9.897598E-2,3.8999762E-2,-2.4473408E-2,3.7322983E-2,-3.12037E-2,-1.2707049E-1,5.4649197E-2,-1.5477564E-2,-1.7803806E-1,5.0892502E-2,4.059909E-2,-1.9834613E-2,1.0684162E-2,1.3816598E-1,-4.753129E-2,4.8654497E-2,4.7486864E-2,-6.368434E-2,-2.9920101E-2,-1.1161665E-3,2.2213468E-2,1.3424642E-1,-1.19424565E-2,5.5860452E-2,-2.026242E-2,-5.78399E-4,2.897075E-3,-1.1437276E-2,-1.849631E-2,-7.0634286E-4,8.4402686E-4,-1.4671815E-2,-1.6585303E-2,-2.4074183E-3,5.3873523E-3,-3.3404098E-3,-4.3019652E-4,5.263196E-3,-5.2052313E-3,2.9542453E-3,-6.4243376E-3,-2.3162497E-2,9.154299E-3,-2.4603307E-3,-2.3438847E-3,2.6901595E-3,-2.1946369E-2,-1.9608065E-3,9.260115E-3,6.1225693E-4,8.92856E-3,1.5410023E-3,-4.550715E-4,-1.0801757E-2,-3.852369E-3,7.2733248E-3,1.5147E-2,1.2286524E-3,-1.0186172E-2,3.226456E-3,1.155241E-2,2.1297175E-3,1.0435364E-2,3.2008034E-3,-1.8039761E-2,1.0407299E-4,2.3491054E-3,-1.0735822E-3,4.492759E-3,-2.3047884E-3,1.03286775E-2,1.731765E-2,7.0473584E-3,-7.2216652E-3],"categories":[],"categories_nodes":[],"categories_segments":[],"categories_sizes":[],"default_left":[0,0,0,0,0,0,0,0,0,0,0,0,0,0,0,0,0,0,0,0,0,0,0,0,0,0,0,0,0,0,0,0,0,0,0,0,0,0,0,0,0,0,0,0,0,0,0,0,0,0,0,0,0,0,0,0,0,0,0,0,0,0,0,0,0,0,0,0,0,0,0,0,0,0,0,0,0,0,0,0,0,0,0,0,0,0,0,0,0,0,0,0,0,0,0,0,0,0,0,0,0,0,0,0,0,0,0,0,0,0,0],"id":2,"left_children":[1,3,5,7,9,11,13,15,17,19,21,23,25,27,29,-1,31,33,35,37,39,41,43,45,47,49,51,53,55,57,59,-1,-1,61,63,65,67,69,71,-1,73,75,77,79,81,83,85,87,89,91,93,95,97,99,101,-1,103,105,107,-1,109,-1,-1,-1,-1,-1,-1,-1,-1,-1,-1,-1,-1,-1,-1,-1,-1,-1,-1,-1,-1,-1,-1,-1,-1,-1,-1,-1,-1,-1,-1,-1,-1,-1,-1,-1,-1,-1,-1,-1,-1,-1,-1,-1,-1,-1,-1,-1,-1,-1,-1],"loss_changes":[7.6363933E-1,2.6294658E-1,3.3324057E-1,3.562794E-1,1.7012638E-1,2.4885516E-1,2.2845376E-1,1.9004488E-1,2.0658259E-1,1.4761409E-1,1.5108654E-1,2.8255597E-1,1.04247615E-1,3.4090036E-1,1.643678E-1,0E0,8.6863756E-2,8.987731E-2,1.4453037E-1,1.0688704E-1,1.4682114E-1,1.8512392E-1,1.3378246E-1,1.4592877E-1,1.7820233E-1,6.27085E-2,5.086245E-2,1.586608E-1,2.2180238E-1,6.267691E-2,1.10919684E-1,0E0,0E0,9.255788E-2,4.841959E-2,4.5531437E-2,6.88874E-2,2.60625E-2,1.1164521E-1,0E0,2.7753608E-3,1.4211625E-1,1.4934108E-1,8.704608E-2,1.511076E-1,8.757964E-2,6.902216E-3,8.569621E-2,2.0976204E-1,2.1121765E-2,3.163299E-2,3.7969258E-2,3.0468382E-2,1.5070027E-1,1.0594758E-1,0E0,1.6724736E-3,8.231987E-3,4.5992017E-2,0E0,8.744007E-2,0E0,0E0,0E0,0E0,0E0,0E0,0E0,0E0,0E0,0E0,0E0,0E0,0E0,0E0,0E0,0E0,0E0,0E0,0E0,0E0,0E0,0E0,0E0,0E0,0E0,0E0,0E0,0E0,0E0,0E0,0E0,0E0,0E0,0E0,0E0,0E0,0E0,0E0,0E0,0E0,0E0,0E0,0E0,0E0,0E0,0E0,0E0,0E0,0E0,0E0],"parents":[2147483647,0,0,1,1,2,2,3,3,4,4,5,5,6,6,7,7,8,8,9,9,10,10,11,11,12,12,13,13,14,14,16,16,17,17,18,18,19,19,20,20,21,21,22,22,23,23,24,24,25,25,26,26,27,27,28,28,29,29,30,30,33,33,34,34,35,35,36,36,37,37,38,38,40,40,41,41,42,42,43,43,44,44,45,45,46,46,47,47,48,48,49,49,50,50,51,51,52,52,53,53,54,54,56,56,57,57,58,58,60,60],"right_children":[2,4,6,8,10,12,14,16,18,20,22,24,26,28,30,-1,32,34,36,38,40,42,44,46,48,50,52,54,56,58,60,-1,-1,62,64,66,68,70,72,-1,74,76,78,80,82,84,86,88,90,92,94,96,98,100,102,-1,104,106,108,-1,110,-1,-1,-1,-1,-1,-1,-1,-1,-1,-1,-1,-1,-1,-1,-1,-1,-1,-1,-1,-1,-1,-1,-1,-1,-1,-1,-1,-1,-1,-1,-1,-1,-1,-1,-1,-1,-1,-1,-1,-1,-1,-1,-1,-1,-1,-1,-1,-1,-1,-1],"split_conditions":[6.363636E-1,9.090909E-2,6.58515E-1,3.3333334E-1,4.4129708E-1,8.666667E-1,7.429117E-1,4.2047983E-1,5.428777E-1,7.575519E-1,5.112045E-1,2.3333333E-1,6.666667E-1,8.5391116E-1,5.6666666E-1,1.1877045E-3,5E-1,6.416904E-1,3.8874227E-1,2.5998977E-1,6.147712E-1,7.0606196E-1,3.2835603E-1,7.674425E-1,6.336194E-1,6.099516E-1,6.3693535E-1,9.3333334E-1,6.73753E-1,3.9227977E-1,5.5811137E-1,-2.9137531E-2,8.351803E-4,7.0358986E-1,7.549558E-1,6.423093E-1,7.926252E-1,6.117475E-1,8E-1,-2.4473408E-2,3.3333334E-1,6.415357E-1,7.108047E-1,6.416904E-1,7.2138196E-1,7.8347003E-1,2.124289E-1,2.6666668E-1,8.063867E-1,6.336194E-1,8.5134894E-1,2.3333333E-1,6.372134E-1,5.4743737E-1,6.217926E-1,-2.9920101E-2,7.2727275E-1,6.425202E-1,7.3576516E-1,-1.19424565E-2,7.972395E-1,-2.026242E-2,-5.78399E-4,2.897075E-3,-1.1437276E-2,-1.849631E-2,-7.0634286E-4,8.4402686E-4,-1.4671815E-2,-1.6585303E-2,-2.4074183E-3,5.3873523E-3,-3.3404098E-3,-4.3019652E-4,5.263196E-3,-5.2052313E-3,2.9542453E-3,-6.4243376E-3,-2.3162497E-2,9.154299E-3,-2.4603307E-3,-2.3438847E-3,2.6901595E-3,-2.1946369E-2,-1.9608065E-3,9.260115E-3,6.1225693E-4,8.92856E-3,1.5410023E-3,-4.550715E-4,-1.0801757E-2,-3.852369E-3,7.2733248E-3,1.5147E-2,1.2286524E-3,-1.0186172E-2,3.226456E-3,1.155241E-2,2.1297175E-3,1.0435364E-2,3.2008034E-3,-1.8039761E-2,1.0407299E-4,2.3491054E-3,-1.0735822E-3,4.492759E-3,-2.3047884E-3,1.03286775E-2,1.731765E-2,7.0473584E-3,-7.2216652E-3],"split_indices":[150,108,154,110,77,156,196,147,91,133,203,198,22,140,184,0,2,7,56,91,161,49,21,203,189,126,7,184,35,84,56,0,0,49,28,84,140,168,44,0,5,105,84,7,7,70,0,72,182,0,63,2,42,189,203,0,3,35,161,0,14,0,0,0,0,0,0,0,0,0,0,0,0,0,0,0,0,0,0,0,0,0,0,0,0,0,0,0,0,0,0,0,0,0,0,0,0,0,0,0,0,0,0,0,0,0,0,0,0,0,0],"split_type":[0,0,0,0,0,0,0,0,0,0,0,0,0,0,0,0,0,0,0,0,0,0,0,0,0,0,0,0,0,0,0,0,0,0,0,0,0,0,0,0,0,0,0,0,0,0,0,0,0,0,0,0,0,0,0,0,0,0,0,0,0,0,0,0,0,0,0,0,0,0,0,0,0,0,0,0,0,0,0,0,0,0,0,0,0,0,0,0,0,0,0,0,0,0,0,0,0,0,0,0,0,0,0,0,0,0,0,0,0,0,0],"sum_hessian":[1.415E3,8.26E2,5.89E2,1.07E2,7.19E2,2.89E2,3E2,1.4E1,9.3E1,1.12E2,6.07E2,2.41E2,4.8E1,1.96E2,1.04E2,3E0,1.1E1,2.3E1,7E1,1.06E2,6E0,1.34E2,4.73E2,1.6E1,2.25E2,2.4E1,2.4E1,1.87E2,9E0,5.8E1,4.6E1,1E1,1E0,1.5E1,8E0,7E0,6.3E1,5E0,1.01E2,3E0,3E0,1.1E2,2.4E1,2.8E1,4.45E2,1.3E1,3E0,7E1,1.55E2,5E0,1.9E1,7E0,1.7E1,1.74E2,1.3E1,4E0,5E0,6E0,5.2E1,3E0,4.3E1,1.2E1,3E0,5E0,3E0,5E0,2E0,6.1E1,2E0,2E0,3E0,8.4E1,1.7E1,1E0,2E0,8.2E1,2.8E1,1.6E1,8E0,1.9E1,9E0,3.75E2,7E1,1E1,3E0,1E0,2E0,2.3E1,4.7E1,1.33E2,2.2E1,3E0,2E0,1.7E1,2E0,4E0,3E0,4E0,1.3E1,3.6E1,1.38E2,4E0,9E0,1E0,4E0,4E0,2E0,3.1E1,2.1E1,3.9E1,4E0],"tree_param":{"num_deleted":"0","num_feature":"210","num_nodes":"111","size_leaf_vector":"1"}},{"base_weights":[-4.5531258E-4,-1.8175645E-2,2.4383958E-2,-6.0242765E-2,-1.1840332E-2,3.3522904E-2,-2.9564323E-2,-1.606134E-1,-3.269896E-2,-2.0122146E-2,1.3116901E-2,9.175387E-3,5.973638E-2,-1.2046904E-1,9.666612E-3,-2.0964383E-1,-6.1050095E-2,-1.0120815E-1,-2.9622708E-3,-1.1591615E-1,-1.6603585E-2,1.7872352E-2,-2.0059109E-1,2.3844367E-2,-6.642973E-2,7.152272E-2,-7.734575E-5,-6.278154E-2,-3.0229712E-2,-1.6970199E-2,1.8623207E-2,-3.307776E-2,-2.5102887E-1,-1.2108668E-2,-1.08506875E-2,-3.32951E-2,-1.7766544E-1,-1.5210308E-1,1.3069999E-2,-2.3721687E-1,-6.1322614E-3,-2.5079556E-2,2.7367648E-2,-6.0271345E-2,3.0524118E-2,1.8575787E-5,-2.675786E-2,2.7456567E-2,-1.1016888E-1,-1.4412658E-1,1.0855546E-3,-1.5228895E-2,8.161619E-2,4.5021255E-2,-4.968194E-2,-2.4049796E-2,-1.9801145E-2,5.645678E-2,-1.9831134E-2,-7.6758265E-3,7.068495E-4,-2.7828246E-2,-7.650722E-3,1.1700785E-3,-6.180403E-3,-1.4105444E-2,1.8713247E-3,-1.1185607E-4,-2.1286298E-2,1.8294723E-3,-1.898416E-2,4.874661E-3,-1.3272687E-3,-2.9596163E-2,-2.107352E-3,-5.571517E-3,6.4510265E-3,-1.4066938E-3,-5.788941E-3,5.6004566E-3,-2.9862418E-3,1.1560795E-3,-1.6917562E-2,4.133193E-3,-3.937887E-3,3.3330477E-3,-5.9676324E-3,9.253934E-4,-2.3267634E-2,-3.7118427E-3,-2.2830432E-2,2.7573607E-3,-1.9352201E-2,4.3553878E-3,-1.23542985E-2,6.004543E-3,1.1228642E-2,-4.2096335E-3,8.8482555E-3,-1.6947417E-2,-1.8573067E-3,-1.3245063E-2,2.1845181E-3,7.3684314E-3,-2.4734081E-3,-1.5177466E-2,-4.9860746E-4],"categories":[],"categories_nodes":[],"categories_segments":[],"categories_sizes":[],"default_left":[0,0,0,0,0,0,0,0,0,0,0,0,0,0,0,0,0,0,0,0,0,0,0,0,0,0,0,0,0,0,0,0,0,0,0,0,0,0,0,0,0,0,0,0,0,0,0,0,0,0,0,0,0,0,0,0,0,0,0,0,0,0,0,0,0,0,0,0,0,0,0,0,0,0,0,0,0,0,0,0,0,0,0,0,0,0,0,0,0,0,0,0,0,0,0,0,0,0,0,0,0,0,0,0,0,0,0],"id":3,"left_children":[1,3,5,7,9,11,13,15,17,19,21,23,25,27,29,31,33,35,37,39,41,43,45,47,49,51,53,55,-1,-1,57,59,61,-1,63,65,67,69,71,73,75,77,79,81,83,-1,-1,85,87,89,91,93,95,97,99,-1,101,103,105,-1,-1,-1,-1,-1,-1,-1,-1,-1,-1,-1,-1,-1,-1,-1,-1,-1,-1,-1,-1,-1,-1,-1,-1,-1,-1,-1,-1,-1,-1,-1,-1,-1,-1,-1,-1,-1,-1,-1,-1,-1,-1,-1,-1,-1,-1,-1,-1],"loss_changes":[6.237099E-1,2.1968907E-1,2.9187915E-1,2.933238E-1,1.4908159E-1,3.2175958E-1,3.0786437E-1,9.947872E-2,1.7490253E-1,1.8042327E-1,1.865151E-1,2.9326412E-1,1.713168E-1,2.5374064E-1,1.0115884E-1,1.0130447E-1,2.5810331E-2,1.2908825E-1,1.4784299E-1,2.5156575E-1,1.9560789E-1,1.7683181E-1,5.384788E-2,1.1000714E-1,2.2572264E-1,1.789949E-1,9.3957745E-2,1.5564264E-1,0E0,0E0,8.6956635E-2,7.557E-3,3.5785437E-2,0E0,7.6175923E-3,8.670536E-2,7.433009E-2,4.205644E-2,5.3276785E-2,1.08038664E-1,4.2123478E-2,1.5780619E-1,1.409783E-1,1.9752648E-1,1.1721884E-1,0E0,0E0,1.12540156E-1,8.99343E-2,1.716798E-1,1.290507E-1,1.4545482E-1,1.1366534E-1,8.702214E-2,7.138436E-2,0E0,8.733928E-2,4.378406E-2,5.800453E-2,0E0,0E0,0E0,0E0,0E0,0E0,0E0,0E0,0E0,0E0,0E0,0E0,0E0,0E0,0E0,0E0,0E0,0E0,0E0,0E0,0E0,0E0,0E0,0E0,0E0,0E0,0E0,0E0,0E0,0E0,0E0,0E0,0E0,0E0,0E0,0E0,0E0,0E0,0E0,0E0,0E0,0E0,0E0,0E0,0E0,0E0,0E0,0E0],"parents":[2147483647,0,0,1,1,2,2,3,3,4,4,5,5,6,6,7,7,8,8,9,9,10,10,11,11,12,12,13,13,14,14,15,15,16,16,17,17,18,18,19,19,20,20,21,21,22,22,23,23,24,24,25,25,26,26,27,27,30,30,31,31,32,32,34,34,35,35,36,36,37,37,38,38,39,39,40,40,41,41,42,42,43,43,44,44,47,47,48,48,49,49,50,50,51,51,52,52,53,53,54,54,56,56,57,57,58,58],"right_children":[2,4,6,8,10,12,14,16,18,20,22,24,26,28,30,32,34,36,38,40,42,44,46,48,50,52,54,56,-1,-1,58,60,62,-1,64,66,68,70,72,74,76,78,80,82,84,-1,-1,86,88,90,92,94,96,98,100,-1,102,104,106,-1,-1,-1,-1,-1,-1,-1,-1,-1,-1,-1,-1,-1,-1,-1,-1,-1,-1,-1,-1,-1,-1,-1,-1,-1,-1,-1,-1,-1,-1,-1,-1,-1,-1,-1,-1,-1,-1,-1,-1,-1,-1,-1,-1,-1,-1,-1,-1],"split_conditions":[6.363636E-1,9.090909E-2,1E0,5.009567E-1,1E0,6.666667E-1,5.930099E-1,6.2508225E-1,6.050057E-1,3.3333335E-2,1E0,7.700285E-1,8.333333E-1,8.1983703E-1,4.5714262E-1,4.1615433E-1,5.7417977E-1,6.782026E-1,2.9464814E-1,6.28802E-1,7.09105E-1,1.3333334E-1,5.8979475E-1,8.753333E-1,6.586468E-1,1E-1,7.298286E-1,5.5234873E-1,-3.0229712E-2,-1.6970199E-2,6.850765E-1,3.6453763E-1,6.4139843E-1,-1.2108668E-2,4.8907474E-1,5.7417977E-1,1.6666667E-1,6.020192E-1,6.183381E-1,7.166259E-1,8.333333E-1,7.6666665E-1,6.6178685E-1,7.0520544E-1,7.538234E-1,1.8575787E-5,-2.675786E-2,8.1425244E-1,3.3333334E-1,6.423093E-1,8.3211774E-1,8.333333E-1,7.357927E-1,6.340132E-1,5.719075E-1,-2.4049796E-2,5.539465E-1,6.948649E-1,2.7616397E-1,-7.6758265E-3,7.068495E-4,-2.7828246E-2,-7.650722E-3,1.1700785E-3,-6.180403E-3,-1.4105444E-2,1.8713247E-3,-1.1185607E-4,-2.1286298E-2,1.8294723E-3,-1.898416E-2,4.874661E-3,-1.3272687E-3,-2.9596163E-2,-2.107352E-3,-5.571517E-3,6.4510265E-3,-1.4066938E-3,-5.788941E-3,5.6004566E-3,-2.9862418E-3,1.1560795E-3,-1.6917562E-2,4.133193E-3,-3.937887E-3,3.3330477E-3,-5.9676324E-3,9.253934E-4,-2.3267634E-2,-3.7118427E-3,-2.2830432E-2,2.7573607E-3,-1.9352201E-2,4.3553878E-3,-1.23542985E-2,6.004543E-3,1.1228642E-2,-4.2096335E-3,8.8482555E-3,-1.6947417E-2,-1.8573067E-3,-1.3245063E-2,2.1845181E-3,7.3684314E-3,-2.4734081E-3,-1.5177466E-2,-4.9860746E-4],"split_indices":[150,108,29,0,138,5,28,196,56,142,9,140,29,140,42,189,21,0,77,77,28,72,0,56,133,114,91,133,0,0,140,0,98,0,0,42,1,35,133,154,15,163,140,175,161,0,0,42,1,77,182,1,196,70,168,0,42,56,0,0,0,0,0,0,0,0,0,0,0,0,0,0,0,0,0,0,0,0,0,0,0,0,0,0,0,0,0,0,0,0,0,0,0,0,0,0,0,0,0,0,0,0,0,0,0,0,0],"split_type":[0,0,0,0,0,0,0,0,0,0,0,0,0,0,0,0,0,0,0,0,0,0,0,0,0,0,0,0,0,0,0,0,0,0,0,0,0,0,0,0,0,0,0,0,0,0,0,0,0,0,0,0,0,0,0,0,0,0,0,0,0,0,0,0,0,0,0,0,0,0,0,0,0,0,0,0,0,0,0,0,0,0,0,0,0,0,0,0,0,0,0,0,0,0,0,0,0,0,0,0,0,0,0,0,0,0,0],"sum_hessian":[1.415E3,8.26E2,5.89E2,1.07E2,7.19E2,5.04E2,8.5E1,2.2E1,8.5E1,5.4E2,1.79E2,2.62E2,2.42E2,2.5E1,6E1,1.4E1,8E0,2.5E1,6E1,1.8E1,5.22E2,1.76E2,3E0,2.2E2,4.2E1,2.02E2,4E1,2E1,5E0,2E0,5.8E1,3E0,1.1E1,3E0,5E0,1.4E1,1.1E1,5E0,5.5E1,8E0,1E1,4.38E2,8.4E1,2.4E1,1.52E2,1E0,2E0,2.15E2,5E0,1.9E1,2.3E1,2.1E1,1.81E2,2.1E1,1.9E1,3E0,1.7E1,2.9E1,2.9E1,1E0,2E0,9E0,2E0,4E0,1E0,4E0,1E1,2E0,9E0,1E0,4E0,2.3E1,3.2E1,6E0,2E0,6E0,4E0,3.29E2,1.09E2,5.6E1,2.8E1,1.5E1,9E0,1.32E2,2E1,2.02E2,1.3E1,3E0,2E0,9E0,1E1,2.1E1,2E0,1.4E1,7E0,1.08E2,7.3E1,7E0,1.4E1,3E0,1.6E1,4E0,1.3E1,2.4E1,5E0,2E0,2.7E1],"tree_param":{"num_deleted":"0","num_feature":"210","num_nodes":"107","size_leaf_vector":"1"}},{"base_weights":[-6.5742206E-4,-1.6581202E-2,2.1663975E-2,-5.5207435E-2,-1.0764238E-2,3.480703E-2,-1.0743901E-2,-1.7442614E-1,-3.559586E-2,-4.912046E-3,-4.5379996E-2,-8.8860355E-2,3.897542E-2,1.666318E-2,-9.2715286E-2,9.2983845E-4,-2.2113213E-1,-1.0262459E-1,-1.2436913E-2,-2.259724E-2,1.3135971E-2,-1.2299126E-2,-1.3473168E-1,3.9027948E-2,-1.8965508E-1,1.7378284E-2,5.7805277E-2,-1.1240232E-3,9.0702906E-2,-2.5548023E-1,-6.457569E-2,-2.4223448E-1,5.4968894E-4,-1.4169024E-1,-2.1771796E-2,-1.2139736E-1,1.3774699E-3,-1.4540274E-2,-1.18675E-1,2.2000559E-2,-4.159397E-2,-1.7364436E-1,-3.4115575E-3,-8.395825E-2,-3.0690786E-1,8.424187E-3,7.70249E-3,-5.609788E-2,-2.5856981E-2,4.6853162E-2,-3.3098318E-2,8.027056E-2,3.4737925E-4,-9.546592E-2,9.811607E-3,1.8094977E-2,1.2380694E-1,-1.134595E-2,-2.9812573E-2,-1.322293E-1,-9.362639E-3,-6.65316E-3,-2.531516E-2,-1.72571E-2,-5.905211E-4,2.9955427E-3,-9.391968E-3,-1.7138189E-2,-2.8567389E-3,5.6164297E-3,-1.5086128E-3,-2.406233E-3,4.711554E-3,-4.0735207E-3,-2.4404854E-2,3.1042206E-3,-3.6125488E-3,1.6166897E-3,-7.9982495E-3,-2.3543103E-2,5.857825E-4,-8.571277E-3,5.110796E-4,-1.0192733E-3,-1.7883416E-2,-3.743444E-2,1.5137375E-3,2.1736166E-3,-7.695854E-4,-6.6761756E-3,-1.2053133E-3,-1.8430178E-3,6.5800822E-3,-7.836785E-3,2.1405022E-3,8.398038E-3,-2.647161E-3,-8.573081E-3,1.6581994E-3,-1.7098634E-2,-4.0345392E-4,-4.9866424E-3,2.345767E-3,-1.9383645E-3,5.1954607E-3,1.0348753E-3,1.47380205E-2,-3.031386E-4,-2.024253E-2,-1.1415978E-2,2.0267821E-3],"categories":[],"categories_nodes":[],"categories_segments":[],"categories_sizes":[],"default_left":[0,0,0,0,0,0,0,0,0,0,0,0,0,0,0,0,0,0,0,0,0,0,0,0,0,0,0,0,0,0,0,0,0,0,0,0,0,0,0,0,0,0,0,0,0,0,0,0,0,0,0,0,0,0,0,0,0,0,0,0,0,0,0,0,0,0,0,0,0,0,0,0,0,0,0,0,0,0,0,0,0,0,0,0,0,0,0,0,0,0,0,0,0,0,0,0,0,0,0,0,0,0,0,0,0,0,0,0,0,0,0],"id":4,"left_children":[1,3,5,7,9,11,13,15,17,19,21,23,25,27,29,-1,31,33,35,37,39,41,43,45,47,49,51,53,55,57,59,61,-1,63,65,67,69,71,73,75,77,79,81,83,85,87,-1,89,-1,91,93,95,97,99,101,103,105,-1,-1,107,109,-1,-1,-1,-1,-1,-1,-1,-1,-1,-1,-1,-1,-1,-1,-1,-1,-1,-1,-1,-1,-1,-1,-1,-1,-1,-1,-1,-1,-1,-1,-1,-1,-1,-1,-1,-1,-1,-1,-1,-1,-1,-1,-1,-1,-1,-1,-1,-1,-1,-1],"loss_changes":[5.0366366E-1,1.852222E-1,2.516777E-1,2.4630234E-1,1.4563331E-1,2.19971E-1,3.8571295E-1,1.307717E-1,1.4464125E-1,1.9723254E-1,3.0574942E-1,1.8786836E-1,1.6451055E-1,1.6998975E-1,1.8044823E-1,0E0,5.872041E-2,7.2720796E-2,1.0703795E-1,2.397922E-1,1.4937356E-1,1.0982304E-1,2.1900785E-1,7.4910736E-3,5.912724E-2,2.8571898E-1,2.8007752E-1,1.09263934E-1,5.7850122E-2,2.5140345E-3,1.4070576E-1,4.2572618E-3,0E0,6.607124E-2,3.6401488E-2,3.2224543E-2,5.8574554E-2,1.7080277E-1,2.2457674E-1,1.3986799E-1,9.66393E-2,4.5742482E-2,5.2341662E-2,1.5914427E-1,1.3597226E-1,1.2402266E-3,0E0,1.0740617E-3,0E0,1.508857E-1,1.7685863E-1,6.399822E-2,8.8063255E-2,7.526441E-2,7.8534916E-2,1.2428178E-2,4.394263E-2,0E0,0E0,1.5356237E-1,7.062789E-2,0E0,0E0,0E0,0E0,0E0,0E0,0E0,0E0,0E0,0E0,0E0,0E0,0E0,0E0,0E0,0E0,0E0,0E0,0E0,0E0,0E0,0E0,0E0,0E0,0E0,0E0,0E0,0E0,0E0,0E0,0E0,0E0,0E0,0E0,0E0,0E0,0E0,0E0,0E0,0E0,0E0,0E0,0E0,0E0,0E0,0E0,0E0,0E0,0E0,0E0],"parents":[2147483647,0,0,1,1,2,2,3,3,4,4,5,5,6,6,7,7,8,8,9,9,10,10,11,11,12,12,13,13,14,14,16,16,17,17,18,18,19,19,20,20,21,21,22,22,23,23,24,24,25,25,26,26,27,27,28,28,29,29,30,30,31,31,33,33,34,34,35,35,36,36,37,37,38,38,39,39,40,40,41,41,42,42,43,43,44,44,45,45,47,47,49,49,50,50,51,51,52,52,53,53,54,54,55,55,56,56,59,59,60,60],"right_children":[2,4,6,8,10,12,14,16,18,20,22,24,26,28,30,-1,32,34,36,38,40,42,44,46,48,50,52,54,56,58,60,62,-1,64,66,68,70,72,74,76,78,80,82,84,86,88,-1,90,-1,92,94,96,98,100,102,104,106,-1,-1,108,110,-1,-1,-1,-1,-1,-1,-1,-1,-1,-1,-1,-1,-1,-1,-1,-1,-1,-1,-1,-1,-1,-1,-1,-1,-1,-1,-1,-1,-1,-1,-1,-1,-1,-1,-1,-1,-1,-1,-1,-1,-1,-1,-1,-1,-1,-1,-1,-1,-1,-1],"split_conditions":[6.363636E-1,9.090909E-2,8.333333E-1,3.3333334E-1,1E0,3.3333335E-2,7.679978E-1,4.2047983E-1,5.428777E-1,6.666667E-1,7.3333335E-1,6.133652E-1,8.181818E-1,7.429117E-1,5.304423E-1,9.2983845E-4,5E-1,6.416904E-1,3.8874227E-1,9.3333334E-1,8.666667E-1,2.665628E-1,6.996373E-1,1E0,7.307425E-1,7.2727275E-1,1E0,4.8616555E-1,5.7191724E-1,4.7394624E-1,6.16625E-1,1.6862208E-1,5.4968894E-4,7.0358986E-1,7.549558E-1,6.257415E-1,5.737861E-1,7.09105E-1,6.9732535E-1,7.443658E-1,6.13956E-1,5.372264E-1,4.2621067E-1,6.703184E-1,6.4120024E-1,3.3333334E-1,7.70249E-3,6.7599255E-1,-2.5856981E-2,6.363636E-1,7.159189E-1,9.6666664E-1,5.5727893E-1,6.691E-1,5.254147E-1,8.047908E-1,6.232753E-1,-1.134595E-2,-2.9812573E-2,5.405253E-1,4.793709E-1,-6.65316E-3,-2.531516E-2,-1.72571E-2,-5.905211E-4,2.9955427E-3,-9.391968E-3,-1.7138189E-2,-2.8567389E-3,5.6164297E-3,-1.5086128E-3,-2.406233E-3,4.711554E-3,-4.0735207E-3,-2.4404854E-2,3.1042206E-3,-3.6125488E-3,1.6166897E-3,-7.9982495E-3,-2.3543103E-2,5.857825E-4,-8.571277E-3,5.110796E-4,-1.0192733E-3,-1.7883416E-2,-3.743444E-2,1.5137375E-3,2.1736166E-3,-7.695854E-4,-6.6761756E-3,-1.2053133E-3,-1.8430178E-3,6.5800822E-3,-7.836785E-3,2.1405022E-3,8.398038E-3,-2.647161E-3,-8.573081E-3,1.6581994E-3,-1.7098634E-2,-4.0345392E-4,-4.9866424E-3,2.345767E-3,-1.9383645E-3,5.1954607E-3,1.0348753E-3,1.47380205E-2,-3.031386E-4,-2.024253E-2,-1.1415978E-2,2.0267821E-3],"split_indices":[150,108,22,110,29,51,140,147,91,5,177,28,94,105,35,0,2,7,56,135,51,140,63,5,0,66,129,42,0,0,14,21,0,49,28,42,14,28,105,182,77,0,63,21,42,1,0,0,0,80,98,93,168,133,161,63,35,0,0,56,0,0,0,0,0,0,0,0,0,0,0,0,0,0,0,0,0,0,0,0,0,0,0,0,0,0,0,0,0,0,0,0,0,0,0,0,0,0,0,0,0,0,0,0,0,0,0,0,0,0,0],"split_type":[0,0,0,0,0,0,0,0,0,0,0,0,0,0,0,0,0,0,0,0,0,0,0,0,0,0,0,0,0,0,0,0,0,0,0,0,0,0,0,0,0,0,0,0,0,0,0,0,0,0,0,0,0,0,0,0,0,0,0,0,0,0,0,0,0,0,0,0,0,0,0,0,0,0,0,0,0,0,0,0,0,0,0,0,0,0,0,0,0,0,0,0,0,0,0,0,0,0,0,0,0,0,0,0,0,0,0,0,0,0,0],"sum_hessian":[1.415E3,8.26E2,5.89E2,1.07E2,7.19E2,4.19E2,1.7E2,1.4E1,9.3E1,6.16E2,1.03E2,1.3E1,4.06E2,1.28E2,4.2E1,3E0,1.1E1,2.3E1,7E1,3.11E2,3.05E2,7.6E1,2.7E1,6E0,7E0,1.9E2,2.16E2,1.04E2,2.4E1,5E0,3.7E1,1E1,1E0,1.5E1,8E0,7E0,6.3E1,2.88E2,2.3E1,2.63E2,4.2E1,3E0,7.3E1,2.2E1,5E0,4E0,2E0,3E0,4E0,1.2E2,7E1,1.55E2,6.1E1,1E1,9.4E1,8E0,1.6E1,2E0,3E0,1.6E1,2.1E1,1E0,9E0,1.2E1,3E0,5E0,3E0,4E0,3E0,1.4E1,4.9E1,2.5E2,3.8E1,1.5E1,8E0,2.28E2,3.5E1,1.7E1,2.5E1,2E0,1E0,6E0,6.7E1,1.3E1,9E0,4E0,1E0,2E0,2E0,2E0,1E0,2.7E1,9.3E1,3.8E1,3.2E1,1.5E2,5E0,9E0,5.2E1,5E0,5E0,1.7E1,7.7E1,4E0,4E0,3E0,1.3E1,6E0,1E1,4E0,1.7E1],"tree_param":{"num_deleted":"0","num_feature":"210","num_nodes":"111","size_leaf_vector":"1"}},{"base_weights":[-7.954091E-4,-1.5152247E-2,1.9329846E-2,-5.473335E-2,-1.012341E-2,1.5152939E-6,3.7887607E-2,-8.4268026E-2,7.0543224E-3,-6.342598E-3,-7.0820615E-2,-1.10526215E-2,5.4595385E-2,2.392917E-2,7.426122E-2,-1.1468492E-1,-1.3137463E-2,-2.918591E-2,2.6746739E-2,-1.8803464E-2,7.4213347E-3,-1.4238317E-1,3.9610523E-3,-1.1274493E-1,-3.3542954E-3,7.308179E-2,-2.4809783E-2,3.2408882E-2,-9.3555525E-2,1.1368189E-1,4.1647907E-2,-1.4021202E-2,-1.438795E-1,-4.7873106E-2,4.4950143E-2,5.8549825E-2,-4.2714413E-2,-1.1693735E-2,-9.220147E-2,4.470856E-2,-4.297364E-3,-1.8953206E-1,5.5829477E-2,1.527988E-2,-7.281815E-3,2.190264E-2,-1.5585977E-1,3.0507883E-2,-1.8744426E-2,1.0898707E-1,2.7660852E-2,2.9531917E-2,-8.505787E-3,4.2488545E-2,-1.7763428E-2,-2.4556836E-2,-3.5088286E-2,5.6457628E-2,1.3278504E-1,-3.387237E-2,8.171877E-2,4.5330008E-3,-7.1035544E-3,-3.558352E-3,-1.7063834E-2,3.4556582E-3,-7.6057673E-3,1.1534241E-2,1.8416618E-3,1.4815003E-2,3.53859E-3,7.6398016E-3,-1.046766E-2,-7.094835E-4,-1.15976175E-2,-5.6712315E-3,-2.3653574E-2,2.4699233E-3,1.1114577E-2,-1.0112482E-3,8.210766E-3,-7.708496E-3,-2.9341418E-2,8.0460645E-3,1.2588481E-3,-3.24466E-3,2.9239412E-3,-4.3811933E-3,4.9284264E-3,-7.1983063E-3,-2.4171874E-2,3.7252407E-3,-9.177602E-3,-1.4088521E-2,-1.0308017E-3,1.5020894E-2,6.2118103E-3,-8.327163E-3,3.844997E-3,4.196924E-3,3.1048458E-4,4.774515E-4,6.857971E-3,-1.5161014E-2,-4.7748257E-5,-1.020039E-2,1.1120007E-3,1.0468654E-3,1.0955067E-2,1.442107E-2,-6.6905224E-4,-6.609916E-3,5.6691756E-3,1.9288916E-3,1.06381485E-2],"categories":[],"categories_nodes":[],"categories_segments":[],"categories_sizes":[],"default_left":[0,0,0,0,0,0,0,0,0,0,0,0,0,0,0,0,0,0,0,0,0,0,0,0,0,0,0,0,0,0,0,0,0,0,0,0,0,0,0,0,0,0,0,0,0,0,0,0,0,0,0,0,0,0,0,0,0,0,0,0,0,0,0,0,0,0,0,0,0,0,0,0,0,0,0,0,0,0,0,0,0,0,0,0,0,0,0,0,0,0,0,0,0,0,0,0,0,0,0,0,0,0,0,0,0,0,0,0,0,0,0,0,0,0,0],"id":5,"left_children":[1,3,5,7,9,11,13,15,17,19,21,23,25,27,29,31,33,-1,35,37,39,41,43,45,47,49,51,53,55,57,59,61,63,65,67,69,71,73,75,77,79,81,83,85,-1,87,89,91,93,95,97,99,-1,101,103,-1,105,107,109,111,113,-1,-1,-1,-1,-1,-1,-1,-1,-1,-1,-1,-1,-1,-1,-1,-1,-1,-1,-1,-1,-1,-1,-1,-1,-1,-1,-1,-1,-1,-1,-1,-1,-1,-1,-1,-1,-1,-1,-1,-1,-1,-1,-1,-1,-1,-1,-1,-1,-1,-1,-1,-1,-1,-1],"loss_changes":[4.094249E-1,1.6405769E-1,2.1162735E-1,1.7030817E-1,1.6822213E-1,1.7561498E-1,1.5104634E-1,1.3479832E-1,1.9028242E-1,1.18996345E-1,2.3068134E-1,1.8907407E-1,7.374105E-2,2.2120781E-1,1.01973414E-1,1.2729138E-1,4.250611E-2,0E0,6.8773285E-2,1.8887153E-1,1.4438818E-1,2.1618268E-1,2.0231767E-2,1.0210398E-1,1.1835025E-1,6.221938E-2,3.525175E-2,1.0442735E-1,1.2469998E-1,3.2950312E-2,1.4499766E-1,4.0442616E-2,9.2455804E-2,3.283048E-2,1.2817822E-2,3.8342923E-2,8.180175E-2,1.5887879E-1,1.5049914E-1,1.0227451E-1,1.2744908E-1,1.8764442E-1,4.312505E-3,1.4273506E-2,0E0,1.1156098E-2,7.622075E-2,6.197591E-2,1.5929478E-1,3.317389E-2,2.5942193E-2,1.8417849E-3,0E0,1.6793704E-1,8.090596E-2,0E0,3.8238958E-2,2.5711793E-2,4.3992072E-2,5.336332E-2,4.5678407E-2,0E0,0E0,0E0,0E0,0E0,0E0,0E0,0E0,0E0,0E0,0E0,0E0,0E0,0E0,0E0,0E0,0E0,0E0,0E0,0E0,0E0,0E0,0E0,0E0,0E0,0E0,0E0,0E0,0E0,0E0,0E0,0E0,0E0,0E0,0E0,0E0,0E0,0E0,0E0,0E0,0E0,0E0,0E0,0E0,0E0,0E0,0E0,0E0,0E0,0E0,0E0,0E0,0E0,0E0],"parents":[2147483647,0,0,1,1,2,2,3,3,4,4,5,5,6,6,7,7,8,8,9,9,10,10,11,11,12,12,13,13,14,14,15,15,16,16,18,18,19,19,20,20,21,21,22,22,23,23,24,24,25,25,26,26,27,27,28,28,29,29,30,30,31,31,32,32,33,33,34,34,35,35,36,36,37,37,38,38,39,39,40,40,41,41,42,42,43,43,45,45,46,46,47,47,48,48,49,49,50,50,51,51,53,53,54,54,56,56,57,57,58,58,59,59,60,60],"right_children":[2,4,6,8,10,12,14,16,18,20,22,24,26,28,30,32,34,-1,36,38,40,42,44,46,48,50,52,54,56,58,60,62,64,66,68,70,72,74,76,78,80,82,84,86,-1,88,90,92,94,96,98,100,-1,102,104,-1,106,108,110,112,114,-1,-1,-1,-1,-1,-1,-1,-1,-1,-1,-1,-1,-1,-1,-1,-1,-1,-1,-1,-1,-1,-1,-1,-1,-1,-1,-1,-1,-1,-1,-1,-1,-1,-1,-1,-1,-1,-1,-1,-1,-1,-1,-1,-1,-1,-1,-1,-1,-1,-1,-1,-1,-1,-1],"split_conditions":[6.363636E-1,4.0521356E-1,6.58515E-1,6.423093E-1,7.8684044E-1,8.666667E-1,7.674425E-1,6.423093E-1,3.4006876E-1,3.6363637E-1,6.2508225E-1,2.3333333E-1,7.3051727E-1,1E0,6.425202E-1,3E-1,6.4139843E-1,-2.918591E-2,6.9732535E-1,7.71195E-1,5.419176E-1,6.727356E-1,7.7112585E-1,4.5714262E-1,6.336194E-1,6.666667E-1,6.362626E-1,1E0,5.644717E-1,5.5324703E-1,6.736466E-1,8.333333E-1,5.0002784E-1,3.6666667E-1,1.6666667E-1,5.128653E-1,4.0842667E-1,3.6363637E-1,7.926252E-1,7.086717E-1,7.784628E-1,6.28471E-1,6.236722E-1,1.6666667E-1,-7.281815E-3,1E-1,6.892362E-1,8.229205E-1,2.7920848E-1,6.425202E-1,5.714618E-1,7.02811E-1,-8.505787E-3,8.181818E-1,4.152592E-1,-2.4556836E-2,6.257415E-1,6.649014E-1,8.039216E-1,7.7958703E-1,2.6666668E-1,4.5330008E-3,-7.1035544E-3,-3.558352E-3,-1.7063834E-2,3.4556582E-3,-7.6057673E-3,1.1534241E-2,1.8416618E-3,1.4815003E-2,3.53859E-3,7.6398016E-3,-1.046766E-2,-7.094835E-4,-1.15976175E-2,-5.6712315E-3,-2.3653574E-2,2.4699233E-3,1.1114577E-2,-1.0112482E-3,8.210766E-3,-7.708496E-3,-2.9341418E-2,8.0460645E-3,1.2588481E-3,-3.24466E-3,2.9239412E-3,-4.3811933E-3,4.9284264E-3,-7.1983063E-3,-2.4171874E-2,3.7252407E-3,-9.177602E-3,-1.4088521E-2,-1.0308017E-3,1.5020894E-2,6.2118103E-3,-8.327163E-3,3.844997E-3,4.196924E-3,3.1048458E-4,4.774515E-4,6.857971E-3,-1.5161014E-2,-4.7748257E-5,-1.020039E-2,1.1120007E-3,1.0468654E-3,1.0955067E-2,1.442107E-2,-6.6905224E-4,-6.609916E-3,5.6691756E-3,1.9288916E-3,1.06381485E-2],"split_indices":[150,56,154,84,140,156,196,126,7,178,77,198,147,29,28,93,49,0,105,14,7,42,42,91,189,22,119,115,126,70,147,65,154,184,1,98,112,206,0,63,175,98,7,2,0,2,35,119,203,21,28,14,0,157,70,0,112,56,21,133,37,0,0,0,0,0,0,0,0,0,0,0,0,0,0,0,0,0,0,0,0,0,0,0,0,0,0,0,0,0,0,0,0,0,0,0,0,0,0,0,0,0,0,0,0,0,0,0,0,0,0,0,0,0,0],"split_type":[0,0,0,0,0,0,0,0,0,0,0,0,0,0,0,0,0,0,0,0,0,0,0,0,0,0,0,0,0,0,0,0,0,0,0,0,0,0,0,0,0,0,0,0,0,0,0,0,0,0,0,0,0,0,0,0,0,0,0,0,0,0,0,0,0,0,0,0,0,0,0,0,0,0,0,0,0,0,0,0,0,0,0,0,0,0,0,0,0,0,0,0,0,0,0,0,0,0,0,0,0,0,0,0,0,0,0,0,0,0,0,0,0,0,0],"sum_hessian":[1.415E3,8.26E2,5.89E2,9.2E1,7.34E2,2.89E2,3E2,6.2E1,3E1,6.92E2,4.2E1,2.41E2,4.8E1,2.18E2,8.2E1,4.3E1,1.9E1,1E0,2.9E1,3.63E2,3.29E2,2.1E1,2.1E1,1.6E1,2.25E2,3.9E1,9E0,2.04E2,1.4E1,3.6E1,4.6E1,1E1,3.3E1,1.2E1,7E0,2E1,9E0,3.32E2,3.1E1,7.8E1,2.51E2,1.7E1,4E0,1.9E1,2E0,4E0,1.2E1,7E1,1.55E2,2.1E1,1.8E1,5E0,4E0,1.7E2,3.4E1,3E0,1.1E1,1E1,2.6E1,1.6E1,3E1,5E0,5E0,7E0,2.6E1,3E0,9E0,1E0,6E0,3E0,1.7E1,3E0,6E0,3.19E2,1.3E1,2.6E1,5E0,6.1E1,1.7E1,2.36E2,1.5E1,9E0,8E0,2E0,2E0,4E0,1.5E1,1E0,3E0,7E0,5E0,6.7E1,3E0,9E0,1.46E2,1E1,1.1E1,1E0,1.7E1,3E0,2E0,7E1,1E2,3E0,3.1E1,4E0,7E0,6E0,4E0,2.4E1,2E0,1.2E1,4E0,9E0,2.1E1],"tree_param":{"num_deleted":"0","num_feature":"210","num_nodes":"115","size_leaf_vector":"1"}},{"base_weights":[-8.0527813E-4,-1.3738382E-2,1.7324353E-2,-3.759526E-2,-5.967687E-3,2.441997E-2,-2.4543224E-2,-1.3900128E-1,-2.7579648E-2,-2.238378E-2,7.770008E-3,4.5359177E-3,4.5840077E-2,-9.9352844E-2,7.7451905E-3,-1.971428E-1,-1.9472808E-2,-1.8464921E-2,-1.0672147E-1,-1.4381319E-2,-1.2769729E-1,-1.00676045E-1,1.2031494E-2,1.3058621E-2,-8.088011E-2,3.6780212E-2,1.0893911E-1,-5.205031E-2,-2.483529E-2,-1.3754056E-1,1.5001328E-2,-2.2200653E-1,3.817919E-3,-6.436858E-3,1.1359215E-2,-9.0033904E-4,-6.9503814E-2,-1.5068346E-1,4.650881E-2,-4.9646664E-2,1.8846381E-3,-5.012884E-2,-2.6459176E-2,3.5794377E-2,-1.6530672E-1,-6.418932E-2,1.7702658E-2,1.9548576E-2,-7.902255E-2,-2.0063931E-2,-1.6401637E-1,4.772526E-2,-1.6868394E-2,2.8447287E-2,1.2787676E-1,-2.0262439E-2,-1.569772E-2,-1.6959528E-2,-3.6715567E-3,4.8244562E-2,-1.8741954E-2,-8.934029E-3,-2.4156122E-2,1.5757472E-3,-3.116906E-4,6.0533255E-4,-1.4098251E-2,-2.077512E-4,-1.1796765E-2,9.990722E-4,-1.9168457E-2,8.45709E-3,-5.2869767E-3,-3.5897319E-3,-1.757783E-2,-1.1793879E-3,5.617808E-3,1.6877566E-3,-1.1954633E-2,1.580526E-3,5.7875426E-3,-7.421043E-3,-2.6062448E-2,-1.2711972E-2,1.601836E-3,2.1480708E-3,-6.290087E-3,4.8702373E-3,4.0516534E-4,-1.2830227E-2,1.0089214E-2,1.2501444E-3,-1.1274408E-2,-2.5439372E-2,-6.1365846E-3,5.6041423E-3,-2.4817444E-3,-1.5095879E-2,-4.8929773E-4,5.355236E-3,-3.7696064E-4,8.06208E-3,1.5085563E-2,-1.1395018E-2,2.0513711E-3,1.4523366E-3,8.57457E-3,-1.3338183E-2,-5.7897536E-4],"categories":[],"categories_nodes":[],"categories_segments":[],"categories_sizes":[],"default_left":[0,0,0,0,0,0,0,0,0,0,0,0,0,0,0,0,0,0,0,0,0,0,0,0,0,0,0,0,0,0,0,0,0,0,0,0,0,0,0,0,0,0,0,0,0,0,0,0,0,0,0,0,0,0,0,0,0,0,0,0,0,0,0,0,0,0,0,0,0,0,0,0,0,0,0,0,0,0,0,0,0,0,0,0,0,0,0,0,0,0,0,0,0,0,0,0,0,0,0,0,0,0,0,0,0,0,0,0,0],"id":6,"left_children":[1,3,5,7,9,11,13,15,17,19,21,23,25,27,29,31,33,35,37,39,41,43,45,47,49,51,53,55,-1,57,59,61,-1,-1,63,65,67,69,71,73,75,77,-1,79,81,83,85,87,89,91,93,95,97,99,101,-1,103,-1,-1,105,107,-1,-1,-1,-1,-1,-1,-1,-1,-1,-1,-1,-1,-1,-1,-1,-1,-1,-1,-1,-1,-1,-1,-1,-1,-1,-1,-1,-1,-1,-1,-1,-1,-1,-1,-1,-1,-1,-1,-1,-1,-1,-1,-1,-1,-1,-1,-1,-1],"loss_changes":[3.3225092E-1,1.5308864E-1,1.7587437E-1,2.0234197E-1,1.4112347E-1,2.1488091E-1,2.0850113E-1,1.2125328E-1,1.3220164E-1,2.383522E-1,1.5880147E-1,1.9251373E-1,1.3490874E-1,1.7032322E-1,6.63703E-2,7.8687906E-2,1.0420768E-2,1.5054551E-1,1.3499796E-1,1.5267771E-1,1.9911015E-1,1.2057933E-1,1.433501E-1,1.4496943E-1,1.1805391E-1,1.2646294E-1,4.2092025E-2,1.1176817E-1,0E0,3.4689642E-3,6.708661E-2,6.9555044E-3,0E0,0E0,3.6746298E-4,1.2358804E-1,1.4026761E-1,1.00732386E-1,2.3384023E-2,1.3936512E-1,1.3656819E-1,6.713748E-2,0E0,1.2921672E-3,5.8806777E-2,1.1812878E-1,9.484007E-2,1.0145635E-1,1.5480298E-1,4.6681914E-2,7.716173E-2,1.08774096E-1,5.8675528E-2,5.863523E-3,1.3899237E-2,0E0,6.637906E-2,0E0,0E0,3.6692172E-2,4.3772914E-2,0E0,0E0,0E0,0E0,0E0,0E0,0E0,0E0,0E0,0E0,0E0,0E0,0E0,0E0,0E0,0E0,0E0,0E0,0E0,0E0,0E0,0E0,0E0,0E0,0E0,0E0,0E0,0E0,0E0,0E0,0E0,0E0,0E0,0E0,0E0,0E0,0E0,0E0,0E0,0E0,0E0,0E0,0E0,0E0,0E0,0E0,0E0,0E0],"parents":[2147483647,0,0,1,1,2,2,3,3,4,4,5,5,6,6,7,7,8,8,9,9,10,10,11,11,12,12,13,13,14,14,15,15,16,16,17,17,18,18,19,19,20,20,21,21,22,22,23,23,24,24,25,25,26,26,27,27,29,29,30,30,31,31,34,34,35,35,36,36,37,37,38,38,39,39,40,40,41,41,43,43,44,44,45,45,46,46,47,47,48,48,49,49,50,50,51,51,52,52,53,53,54,54,56,56,59,59,60,60],"right_children":[2,4,6,8,10,12,14,16,18,20,22,24,26,28,30,32,34,36,38,40,42,44,46,48,50,52,54,56,-1,58,60,62,-1,-1,64,66,68,70,72,74,76,78,-1,80,82,84,86,88,90,92,94,96,98,100,102,-1,104,-1,-1,106,108,-1,-1,-1,-1,-1,-1,-1,-1,-1,-1,-1,-1,-1,-1,-1,-1,-1,-1,-1,-1,-1,-1,-1,-1,-1,-1,-1,-1,-1,-1,-1,-1,-1,-1,-1,-1,-1,-1,-1,-1,-1,-1,-1,-1,-1,-1,-1,-1],"split_conditions":[6.363636E-1,5.3632087E-1,1E0,3.380237E-1,6.666667E-1,6.666667E-1,5.930099E-1,6.4120024E-1,8.666667E-1,9.3333334E-1,3.3333335E-2,8.004229E-1,9E-1,8.1983703E-1,4.5714262E-1,6.333333E-1,1.6666667E-1,6.851535E-1,7.092E-1,5.5811137E-1,6.415357E-1,5.4684055E-1,3.8315624E-1,8.1983703E-1,6.945788E-1,8.333333E-1,5.6475127E-1,5.5234873E-1,-2.483529E-2,6.690566E-1,6.850765E-1,2E-1,3.817919E-3,-6.436858E-3,6.666667E-1,7.9370195E-1,6.217926E-1,5.69036E-1,6.585367E-1,7.15066E-1,5.4545456E-1,6.415357E-1,-2.6459176E-2,3.3333334E-1,6.6042E-1,6E-1,9.6666664E-1,3.3333334E-1,7.15066E-1,6.6678613E-1,6.511514E-1,9.3333334E-1,3.7248993E-1,6.4120024E-1,6.275381E-1,-2.0262439E-2,5.539465E-1,-1.6959528E-2,-3.6715567E-3,6.992251E-1,2.7616397E-1,-8.934029E-3,-2.4156122E-2,1.5757472E-3,-3.116906E-4,6.0533255E-4,-1.4098251E-2,-2.077512E-4,-1.1796765E-2,9.990722E-4,-1.9168457E-2,8.45709E-3,-5.2869767E-3,-3.5897319E-3,-1.757783E-2,-1.1793879E-3,5.617808E-3,1.6877566E-3,-1.1954633E-2,1.580526E-3,5.7875426E-3,-7.421043E-3,-2.6062448E-2,-1.2711972E-2,1.601836E-3,2.1480708E-3,-6.290087E-3,4.8702373E-3,4.0516534E-4,-1.2830227E-2,1.0089214E-2,1.2501444E-3,-1.1274408E-2,-2.5439372E-2,-6.1365846E-3,5.6041423E-3,-2.4817444E-3,-1.5095879E-2,-4.8929773E-4,5.355236E-3,-3.7696064E-4,8.06208E-3,1.5085563E-2,-1.1395018E-2,2.0513711E-3,1.4523366E-3,8.57457E-3,-1.3338183E-2,-5.7897536E-4],"split_indices":[150,203,29,0,152,5,28,42,184,135,65,42,58,140,42,9,16,70,126,168,105,56,56,140,49,29,70,133,0,0,140,2,0,0,1,175,196,119,0,35,171,182,0,1,203,16,9,1,203,63,112,93,77,42,161,0,42,0,0,49,0,0,0,0,0,0,0,0,0,0,0,0,0,0,0,0,0,0,0,0,0,0,0,0,0,0,0,0,0,0,0,0,0,0,0,0,0,0,0,0,0,0,0,0,0,0,0,0,0],"split_type":[0,0,0,0,0,0,0,0,0,0,0,0,0,0,0,0,0,0,0,0,0,0,0,0,0,0,0,0,0,0,0,0,0,0,0,0,0,0,0,0,0,0,0,0,0,0,0,0,0,0,0,0,0,0,0,0,0,0,0,0,0,0,0,0,0,0,0,0,0,0,0,0,0,0,0,0,0,0,0,0,0,0,0,0,0,0,0,0,0,0,0,0,0,0,0,0,0,0,0,0,0,0,0,0,0,0,0,0,0],"sum_hessian":[1.415E3,8.26E2,5.89E2,2.02E2,6.24E2,5.04E2,8.5E1,1.7E1,1.85E2,2.84E2,3.4E2,2.62E2,2.42E2,2.5E1,6E1,1.1E1,6E0,1.67E2,1.8E1,2.65E2,1.9E1,1.2E1,3.28E2,2.39E2,2.3E1,2.13E2,2.9E1,2E1,5E0,2E0,5.8E1,1E1,1E0,2E0,4E0,1.25E2,4.2E1,1.4E1,4E0,8.3E1,1.82E2,1.3E1,6E0,4E0,8E0,2.2E1,3.06E2,2.24E2,1.5E1,1.4E1,9E0,1.77E2,3.6E1,6E0,2.3E1,3E0,1.7E1,1E0,1E0,2.9E1,2.9E1,2E0,8E0,3E0,1E0,1.2E2,5E0,1.8E1,2.4E1,3E0,1.1E1,3E0,1E0,7.6E1,7E0,1.46E2,3.6E1,7E0,6E0,3E0,1E0,5E0,3E0,1.2E1,1E1,2.93E2,1.3E1,7.7E1,1.47E2,1.2E1,3E0,1.1E1,3E0,4E0,5E0,1.59E2,1.8E1,2E0,3.4E1,3E0,3E0,9E0,1.4E1,4E0,1.3E1,1.6E1,1.3E1,2E0,2.7E1],"tree_param":{"num_deleted":"0","num_feature":"210","num_nodes":"109","size_leaf_vector":"1"}},{"base_weights":[-9.1693894E-4,-8.869152E-3,2.4471685E-2,-5.0366763E-2,-4.532112E-3,3.9106485E-2,-2.1694357E-2,-1.508517E-1,-3.1307846E-2,1.7071717E-3,-4.1581668E-2,6.0359247E-2,1.0156347E-2,-1.7603435E-1,-7.193379E-3,1.0534049E-3,-1.8890488E-1,-9.044773E-2,-8.641202E-3,-1.228891E-2,1.5732583E-2,-3.1728163E-2,-1.8257436E-1,-7.878153E-2,6.477136E-2,3.578834E-2,-6.996378E-2,-4.6323044E-3,-2.1865426E-2,1.1100164E-2,-7.648792E-2,6.166488E-4,-2.0567471E-2,-1.272311E-1,-1.500531E-2,-9.972814E-2,4.29453E-3,-6.9993655E-3,-8.609256E-2,3.1694323E-2,-5.226906E-3,-8.210131E-2,-6.7487583E-3,-2.3737453E-2,6.150842E-4,5.7842582E-3,-2.0852236E-2,-3.9635547E-2,7.0395336E-2,4.882444E-3,7.3072255E-2,2.5041409E-2,-1.2732223E-1,-1.4012664E-2,1.8601522E-2,9.550433E-3,-1.1646449E-1,-1.5499728E-2,-5.183324E-4,3.1995368E-3,-8.1755E-3,-3.7267047E-3,-1.52872475E-2,1.1299343E-3,-1.2555855E-2,-1.4104777E-3,3.9866976E-3,-1.5199621E-2,1.4445317E-3,6.2979916E-3,7.767044E-4,-2.3694173E-3,3.4663358E-3,-6.25094E-3,-2.6239306E-2,4.7537087E-5,-1.07965795E-2,-2.8981785E-3,5.5041197E-3,1.3398052E-3,-7.413532E-3,-5.54241E-3,7.3625795E-3,3.0538454E-3,-7.249245E-3,1.09852655E-2,2.6102222E-3,-4.930084E-3,4.703978E-3,-1.6386135E-2,3.2395273E-3,-5.203071E-3,2.7579337E-3,7.0522516E-3,-1.6748488E-3,-1.2875979E-2,-4.075708E-3],"categories":[],"categories_nodes":[],"categories_segments":[],"categories_sizes":[],"default_left":[0,0,0,0,0,0,0,0,0,0,0,0,0,0,0,0,0,0,0,0,0,0,0,0,0,0,0,0,0,0,0,0,0,0,0,0,0,0,0,0,0,0,0,0,0,0,0,0,0,0,0,0,0,0,0,0,0,0,0,0,0,0,0,0,0,0,0,0,0,0,0,0,0,0,0,0,0,0,0,0,0,0,0,0,0,0,0,0,0,0,0,0,0,0,0,0,0],"id":7,"left_children":[1,3,5,7,9,11,13,15,17,19,21,23,25,27,29,-1,31,33,35,37,39,41,43,45,47,49,51,-1,-1,53,55,-1,-1,57,59,61,63,65,67,69,71,73,75,-1,-1,77,-1,79,81,83,85,87,89,-1,91,93,95,-1,-1,-1,-1,-1,-1,-1,-1,-1,-1,-1,-1,-1,-1,-1,-1,-1,-1,-1,-1,-1,-1,-1,-1,-1,-1,-1,-1,-1,-1,-1,-1,-1,-1,-1,-1,-1,-1,-1,-1],"loss_changes":[2.861014E-1,1.9396672E-1,2.2921161E-1,1.9062084E-1,2.261481E-1,1.5751141E-1,1.8225634E-1,1.002498E-1,1.15842156E-1,1.6469342E-1,1.9009455E-1,9.596074E-2,2.2840413E-1,2.8569236E-2,9.718987E-2,0E0,4.3795347E-2,6.4691514E-2,7.5837955E-2,1.6336027E-1,1.4034206E-1,1.6679867E-1,9.453961E-2,5.606432E-2,8.734429E-2,9.6435815E-2,1.5032075E-1,0E0,0E0,7.1805365E-2,5.6144573E-2,0E0,0E0,5.3417385E-2,3.0851305E-2,2.0858519E-2,5.326573E-2,1.3143313E-1,1.877184E-1,1.7767262E-1,1.3489419E-1,1.3901743E-1,6.5859765E-2,0E0,0E0,8.445067E-3,0E0,1.5630443E-2,5.976498E-2,9.551496E-2,6.2780485E-2,2.0308591E-2,1.0451928E-1,0E0,3.884823E-2,1.0802145E-2,4.991427E-3,0E0,0E0,0E0,0E0,0E0,0E0,0E0,0E0,0E0,0E0,0E0,0E0,0E0,0E0,0E0,0E0,0E0,0E0,0E0,0E0,0E0,0E0,0E0,0E0,0E0,0E0,0E0,0E0,0E0,0E0,0E0,0E0,0E0,0E0,0E0,0E0,0E0,0E0,0E0,0E0],"parents":[2147483647,0,0,1,1,2,2,3,3,4,4,5,5,6,6,7,7,8,8,9,9,10,10,11,11,12,12,13,13,14,14,16,16,17,17,18,18,19,19,20,20,21,21,22,22,23,23,24,24,25,25,26,26,29,29,30,30,33,33,34,34,35,35,36,36,37,37,38,38,39,39,40,40,41,41,42,42,45,45,47,47,48,48,49,49,50,50,51,51,52,52,54,54,55,55,56,56],"right_children":[2,4,6,8,10,12,14,16,18,20,22,24,26,28,30,-1,32,34,36,38,40,42,44,46,48,50,52,-1,-1,54,56,-1,-1,58,60,62,64,66,68,70,72,74,76,-1,-1,78,-1,80,82,84,86,88,90,-1,92,94,96,-1,-1,-1,-1,-1,-1,-1,-1,-1,-1,-1,-1,-1,-1,-1,-1,-1,-1,-1,-1,-1,-1,-1,-1,-1,-1,-1,-1,-1,-1,-1,-1,-1,-1,-1,-1,-1,-1,-1,-1],"split_conditions":[8.181818E-1,9.090909E-2,1E0,3.3333334E-1,1E0,6.666667E-1,4.300694E-1,4.2047983E-1,5.428777E-1,6.666667E-1,8.063867E-1,3.3333335E-2,7.700285E-1,6.232753E-1,7.443658E-1,1.0534049E-3,9.1512315E-2,6.416904E-1,3.8874227E-1,7.7958703E-1,6.461521E-1,3.3333334E-1,7.0019466E-1,7.307425E-1,6.666667E-2,6.674749E-1,6.756331E-1,-4.6323044E-3,-2.1865426E-2,3.0426106E-1,6.416904E-1,6.166488E-4,-2.0567471E-2,7.0358986E-1,7.549558E-1,6.63887E-1,7.9363596E-1,7.207675E-1,6.982667E-1,6.336194E-1,6.851535E-1,7.193011E-1,7.118308E-1,-2.3737453E-2,6.150842E-4,7.286766E-1,-2.0852236E-2,3.3333334E-1,3.3333335E-2,6.666667E-1,9.0909094E-1,4.2032138E-1,1E0,-1.4012664E-2,4.7281945E-1,1.6666667E-1,8.3512324E-1,-1.5499728E-2,-5.183324E-4,3.1995368E-3,-8.1755E-3,-3.7267047E-3,-1.52872475E-2,1.1299343E-3,-1.2555855E-2,-1.4104777E-3,3.9866976E-3,-1.5199621E-2,1.4445317E-3,6.2979916E-3,7.767044E-4,-2.3694173E-3,3.4663358E-3,-6.25094E-3,-2.6239306E-2,4.7537087E-5,-1.07965795E-2,-2.8981785E-3,5.5041197E-3,1.3398052E-3,-7.413532E-3,-5.54241E-3,7.3625795E-3,3.0538454E-3,-7.249245E-3,1.09852655E-2,2.6102222E-3,-4.930084E-3,4.703978E-3,-1.6386135E-2,3.2395273E-3,-5.203071E-3,2.7579337E-3,7.0522516E-3,-1.6748488E-3,-1.2875979E-2,-4.075708E-3],"split_indices":[94,108,66,89,29,22,182,147,91,5,182,51,140,21,182,0,84,7,56,140,168,37,14,7,205,154,42,0,0,175,7,0,0,49,28,0,49,28,161,189,77,112,7,0,0,0,0,5,100,100,87,84,185,0,21,1,91,0,0,0,0,0,0,0,0,0,0,0,0,0,0,0,0,0,0,0,0,0,0,0,0,0,0,0,0,0,0,0,0,0,0,0,0,0,0,0,0],"split_type":[0,0,0,0,0,0,0,0,0,0,0,0,0,0,0,0,0,0,0,0,0,0,0,0,0,0,0,0,0,0,0,0,0,0,0,0,0,0,0,0,0,0,0,0,0,0,0,0,0,0,0,0,0,0,0,0,0,0,0,0,0,0,0,0,0,0,0,0,0,0,0,0,0,0,0,0,0,0,0,0,0,0,0,0,0,0,0,0,0,0,0,0,0,0,0,0,0],"sum_hessian":[1.415E3,1.078E3,3.37E2,1.01E2,9.77E2,2.56E2,8.1E1,1.5E1,8.6E1,8.37E2,1.4E2,1.47E2,1.09E2,6E0,7.5E1,3E0,1.2E1,2.3E1,6.3E1,4.19E2,4.18E2,1.32E2,8E0,4E0,1.43E2,8.3E1,2.6E1,2E0,4E0,6E1,1.5E1,1E0,1.1E1,1.5E1,8E0,7E0,5.6E1,3.92E2,2.7E1,2.37E2,1.81E2,4.3E1,8.9E1,6E0,2E0,3E0,1E0,7E0,1.36E2,4.6E1,3.7E1,1E1,1.6E1,2E0,5.8E1,5E0,1E1,1.2E1,3E0,5E0,3E0,4E0,3E0,5.4E1,2E0,3.41E2,5.1E1,1.6E1,1.1E1,1.02E2,1.35E2,1.24E2,5.7E1,4E1,3E0,8.4E1,5E0,2E0,1E0,3E0,4E0,3E0,1.33E2,3.5E1,1.1E1,2E1,1.7E1,2E0,8E0,1.3E1,3E0,6E0,5.2E1,1E0,4E0,8E0,2E0],"tree_param":{"num_deleted":"0","num_feature":"210","num_nodes":"97","size_leaf_vector":"1"}},{"base_weights":[-9.811121E-4,-8.111712E-3,2.1784859E-2,-4.6019603E-2,-4.1498337E-3,3.509282E-2,-2.0189904E-2,-1.3694762E-1,-2.876825E-2,1.5328649E-3,-3.789417E-2,5.417127E-2,9.104601E-3,-1.622163E-1,-6.842868E-3,9.744004E-4,-1.7154907E-1,-7.823776E-2,-5.2030077E-3,-1.10866325E-2,1.4178822E-2,-2.8880479E-2,-1.6688608E-1,-7.4552655E-2,5.8264665E-2,6.627583E-2,-2.1989599E-2,-4.3234844E-3,-2.0116193E-2,9.720369E-3,-6.9562525E-2,5.8581535E-4,-1.8682118E-1,-2.2032096E-3,-1.0854142E-1,1.8628702E-2,-8.483782E-2,-6.2928703E-3,-7.7974565E-2,4.5574248E-2,4.1941293E-3,-8.274996E-2,-9.543988E-3,-2.1702817E-2,5.7408016E-4,5.8573037E-3,-1.9809624E-2,-3.6431216E-2,6.336906E-2,8.607273E-2,-9.2774825E-3,4.147848E-2,-4.8936818E-2,-1.3078486E-2,1.6699951E-2,9.491618E-3,-1.063591E-1,-5.2869204E-3,-1.9419234E-2,2.2162048E-3,-5.8321073E-3,-3.4074548E-3,-1.4601785E-2,7.725641E-4,7.982825E-3,-1.8232551E-3,-1.7060608E-2,6.3085034E-3,-1.0576964E-3,-1.376907E-2,1.3121176E-3,5.267731E-3,-7.567038E-3,1.1580157E-3,-3.989208E-3,-1.8333003E-2,-4.0882635E-3,-1.4126985E-4,-1.0186083E-2,-2.7049682E-3,5.228913E-3,1.2393206E-3,-6.820451E-3,-5.1267305E-3,6.631814E-3,2.361875E-3,1.0676895E-2,4.32465E-3,-5.9945965E-3,7.6832697E-3,-4.5256657E-3,-1.209348E-2,-1.2568177E-3,-4.7570937E-3,2.4873465E-3,3.237591E-3,-5.2464916E-3,-1.1731449E-2,-3.8039943E-3],"categories":[],"categories_nodes":[],"categories_segments":[],"categories_sizes":[],"default_left":[0,0,0,0,0,0,0,0,0,0,0,0,0,0,0,0,0,0,0,0,0,0,0,0,0,0,0,0,0,0,0,0,0,0,0,0,0,0,0,0,0,0,0,0,0,0,0,0,0,0,0,0,0,0,0,0,0,0,0,0,0,0,0,0,0,0,0,0,0,0,0,0,0,0,0,0,0,0,0,0,0,0,0,0,0,0,0,0,0,0,0,0,0,0,0,0,0,0,0],"id":8,"left_children":[1,3,5,7,9,11,13,15,17,19,21,23,25,27,29,-1,31,33,35,37,39,41,43,45,47,49,51,-1,-1,53,55,-1,57,59,61,63,65,67,69,71,73,75,77,-1,-1,79,-1,81,83,85,87,89,91,-1,93,95,97,-1,-1,-1,-1,-1,-1,-1,-1,-1,-1,-1,-1,-1,-1,-1,-1,-1,-1,-1,-1,-1,-1,-1,-1,-1,-1,-1,-1,-1,-1,-1,-1,-1,-1,-1,-1,-1,-1,-1,-1,-1,-1],"loss_changes":[2.3004311E-1,1.6186021E-1,1.895148E-1,1.5606065E-1,1.8759829E-1,1.2693128E-1,1.5433174E-1,8.288345E-2,1.0101412E-1,1.3388996E-1,1.5912005E-1,8.2327574E-2,1.9700366E-1,2.3739442E-2,7.962806E-2,0E0,3.6316395E-2,6.427637E-2,1.1545044E-1,1.3418014E-1,1.3115433E-1,1.3774925E-1,7.914877E-2,5.0830983E-2,7.191321E-2,5.9131667E-2,1.2517057E-1,0E0,0E0,6.2004834E-2,4.7552273E-2,0E0,1.5818179E-3,1.3598448E-2,5.0839573E-2,3.0744607E-2,7.6866075E-2,1.1747529E-1,1.5412346E-1,9.096806E-2,1.0433536E-1,1.3989063E-1,7.417094E-2,0E0,0E0,7.526129E-3,0E0,1.3255774E-2,4.9715698E-2,3.7547678E-2,2.6544245E-2,7.093916E-2,1.3202195E-1,0E0,3.2177076E-2,1.0205587E-2,3.7704483E-3,0E0,0E0,0E0,0E0,0E0,0E0,0E0,0E0,0E0,0E0,0E0,0E0,0E0,0E0,0E0,0E0,0E0,0E0,0E0,0E0,0E0,0E0,0E0,0E0,0E0,0E0,0E0,0E0,0E0,0E0,0E0,0E0,0E0,0E0,0E0,0E0,0E0,0E0,0E0,0E0,0E0,0E0],"parents":[2147483647,0,0,1,1,2,2,3,3,4,4,5,5,6,6,7,7,8,8,9,9,10,10,11,11,12,12,13,13,14,14,16,16,17,17,18,18,19,19,20,20,21,21,22,22,23,23,24,24,25,25,26,26,29,29,30,30,32,32,33,33,34,34,35,35,36,36,37,37,38,38,39,39,40,40,41,41,42,42,45,45,47,47,48,48,49,49,50,50,51,51,52,52,54,54,55,55,56,56],"right_children":[2,4,6,8,10,12,14,16,18,20,22,24,26,28,30,-1,32,34,36,38,40,42,44,46,48,50,52,-1,-1,54,56,-1,58,60,62,64,66,68,70,72,74,76,78,-1,-1,80,-1,82,84,86,88,90,92,-1,94,96,98,-1,-1,-1,-1,-1,-1,-1,-1,-1,-1,-1,-1,-1,-1,-1,-1,-1,-1,-1,-1,-1,-1,-1,-1,-1,-1,-1,-1,-1,-1,-1,-1,-1,-1,-1,-1,-1,-1,-1,-1,-1,-1],"split_conditions":[8.181818E-1,9.090909E-2,1E0,3.3333334E-1,1E0,6.666667E-1,4.300694E-1,4.2047983E-1,6.050057E-1,6.666667E-1,8.063867E-1,3.3333335E-2,6.3693535E-1,6.232753E-1,7.443658E-1,9.744004E-4,9.1512315E-2,5.8594525E-1,8.666667E-1,7.7958703E-1,5.654142E-1,2.6666668E-1,7.0019466E-1,7.307425E-1,6.666667E-2,8E-1,6.658232E-1,-4.3234844E-3,-2.0116193E-2,3.0426106E-1,6.416904E-1,5.8581535E-4,1.6862208E-1,5.8423406E-1,5.428777E-1,7.549558E-1,6.423093E-1,2.9464814E-1,6.982667E-1,8.3211774E-1,8.333333E-1,2.7272728E-1,7.118308E-1,-2.1702817E-2,5.7408016E-4,7.286766E-1,-1.9809624E-2,3.3333334E-1,3.3333335E-2,5.265903E-1,6.666667E-1,7.5141144E-1,5.7746065E-1,-1.3078486E-2,4.7281945E-1,6.666667E-1,8.3512324E-1,-5.2869204E-3,-1.9419234E-2,2.2162048E-3,-5.8321073E-3,-3.4074548E-3,-1.4601785E-2,7.725641E-4,7.982825E-3,-1.8232551E-3,-1.7060608E-2,6.3085034E-3,-1.0576964E-3,-1.376907E-2,1.3121176E-3,5.267731E-3,-7.567038E-3,1.1580157E-3,-3.989208E-3,-1.8333003E-2,-4.0882635E-3,-1.4126985E-4,-1.0186083E-2,-2.7049682E-3,5.228913E-3,1.2393206E-3,-6.820451E-3,-5.1267305E-3,6.631814E-3,2.361875E-3,1.0676895E-2,4.32465E-3,-5.9945965E-3,7.6832697E-3,-4.5256657E-3,-1.209348E-2,-1.2568177E-3,-4.7570937E-3,2.4873465E-3,3.237591E-3,-5.2464916E-3,-1.1731449E-2,-3.8039943E-3],"split_indices":[94,108,66,89,29,22,182,147,56,5,182,51,91,21,182,0,84,28,128,140,105,23,14,7,205,142,189,0,0,175,7,0,21,56,182,42,119,105,161,175,29,17,7,0,0,0,0,5,100,7,5,175,203,0,21,1,91,0,0,0,0,0,0,0,0,0,0,0,0,0,0,0,0,0,0,0,0,0,0,0,0,0,0,0,0,0,0,0,0,0,0,0,0,0,0,0,0,0,0],"split_type":[0,0,0,0,0,0,0,0,0,0,0,0,0,0,0,0,0,0,0,0,0,0,0,0,0,0,0,0,0,0,0,0,0,0,0,0,0,0,0,0,0,0,0,0,0,0,0,0,0,0,0,0,0,0,0,0,0,0,0,0,0,0,0,0,0,0,0,0,0,0,0,0,0,0,0,0,0,0,0,0,0,0,0,0,0,0,0,0,0,0,0,0,0,0,0,0,0,0,0],"sum_hessian":[1.415E3,1.078E3,3.37E2,1.01E2,9.77E2,2.56E2,8.1E1,1.5E1,8.6E1,8.37E2,1.4E2,1.47E2,1.09E2,6E0,7.5E1,3E0,1.2E1,2.7E1,5.9E1,4.19E2,4.18E2,1.32E2,8E0,4E0,1.43E2,3.8E1,7.1E1,2E0,4E0,6E1,1.5E1,1E0,1.1E1,8E0,1.9E1,4.6E1,1.3E1,3.92E2,2.7E1,1E2,3.18E2,3.4E1,9.8E1,6E0,2E0,3E0,1E0,7E0,1.36E2,3E1,8E0,2.1E1,5E1,2E0,5.8E1,5E0,1E1,1E0,1E1,6E0,2E0,7E0,1.2E1,4E1,6E0,8E0,5E0,2.2E1,3.7E2,1.6E1,1.1E1,9.5E1,5E0,2.73E2,4.5E1,9E0,2.5E1,9.1E1,7E0,2E0,1E0,3E0,4E0,3E0,1.33E2,8E0,2.2E1,4E0,4E0,1.5E1,6E0,1.6E1,3.4E1,6E0,5.2E1,4E0,1E0,8E0,2E0],"tree_param":{"num_deleted":"0","num_feature":"210","num_nodes":"99","size_leaf_vector":"1"}},{"base_weights":[-1.0232755E-3,-1.9705543E-2,6.4285104E-3,-1.3061829E-2,-8.154898E-2,-1.6077847E-3,2.8549159E-2,-9.336329E-2,-7.654865E-3,-1.4333518E-1,-1.502004E-3,-2.898927E-2,3.968427E-3,4.326963E-2,-9.59612E-3,-1.2619925E-1,5.008599E-2,-7.117444E-2,-1.801312E-3,-2.3007616E-2,-7.73349E-2,-3.0826751E-2,6.2285285E-2,-1.2393075E-1,-1.0972271E-2,1.2361959E-2,-1.6896233E-2,-1.7972967E-2,4.5345552E-2,-3.5467546E-3,-1.5561508E-2,-1.6344482E-2,-1.5440422E-1,9.576551E-3,-6.6316025E-3,8.237573E-3,-1.2016165E-1,5.034316E-2,-8.685398E-3,-1.375205E-1,2.5832662E-2,2.1830767E-2,-6.646655E-2,1.8912762E-3,6.717724E-3,1.6520431E-2,-1.8530415E-1,-1.1532853E-1,4.6868767E-3,5.5934524E-4,3.4430746E-2,-5.4292448E-2,5.625577E-3,2.5654776E-4,5.4925364E-2,1.1862218E-3,-1.1595594E-1,3.3973437E-3,-6.121424E-3,-2.155619E-2,-8.968112E-3,-4.493365E-3,5.263611E-3,-4.3783956E-3,-1.9167447E-2,7.7560395E-3,-3.0899416E-3,-9.783439E-3,-5.3637184E-4,-1.7731605E-2,1.17594005E-4,3.5612953E-3,-1.1534393E-3,3.474781E-3,-2.6688774E-4,-7.957618E-3,-1.8091778E-3,-4.3520494E-3,4.92409E-3,-6.762505E-4,-2.3338255E-2,-1.2092829E-4,-1.6085532E-2,-1.3392858E-2,1.072836E-3,-1.10921925E-2,3.719951E-4,-3.1664006E-3,4.8103617E-3,-1.3687951E-2,-2.569887E-3,1.8116232E-3,-6.52408E-3,-9.024751E-3,3.0415065E-3,9.473984E-3,4.1747577E-3,-1.5772382E-3,3.369929E-3,-2.8426857E-3,-1.4550705E-2],"categories":[],"categories_nodes":[],"categories_segments":[],"categories_sizes":[],"default_left":[0,0,0,0,0,0,0,0,0,0,0,0,0,0,0,0,0,0,0,0,0,0,0,0,0,0,0,0,0,0,0,0,0,0,0,0,0,0,0,0,0,0,0,0,0,0,0,0,0,0,0,0,0,0,0,0,0,0,0,0,0,0,0,0,0,0,0,0,0,0,0,0,0,0,0,0,0,0,0,0,0,0,0,0,0,0,0,0,0,0,0,0,0,0,0,0,0,0,0,0,0],"id":9,"left_children":[1,3,5,7,9,11,13,15,17,19,21,23,25,27,29,31,33,35,37,-1,39,41,43,45,47,49,51,-1,53,55,-1,57,59,-1,-1,61,63,65,67,69,71,73,75,-1,-1,77,79,81,83,85,87,89,91,93,95,97,99,-1,-1,-1,-1,-1,-1,-1,-1,-1,-1,-1,-1,-1,-1,-1,-1,-1,-1,-1,-1,-1,-1,-1,-1,-1,-1,-1,-1,-1,-1,-1,-1,-1,-1,-1,-1,-1,-1,-1,-1,-1,-1,-1,-1],"loss_changes":[1.9725691E-1,1.6492634E-1,1.8012495E-1,1.581978E-1,1.9267091E-1,1.13712646E-1,1.520247E-1,1.1465755E-1,1.2777624E-1,1.0815549E-1,3.558988E-2,2.1417084E-1,1.0861321E-1,9.84211E-2,6.658054E-2,5.6346923E-2,3.2936722E-2,1.1380485E-1,1.1387084E-1,0E0,9.048135E-2,2.5848158E-2,2.5518239E-6,1.754606E-1,1.7539248E-1,1.1510819E-1,1.5022245E-1,0E0,8.378309E-2,3.9507773E-2,0E0,1.3368421E-2,4.0042907E-2,0E0,0E0,3.069383E-2,8.992344E-2,8.42109E-2,8.239009E-2,4.988402E-2,2.6035374E-3,1.9915153E-3,3.63373E-3,0E0,0E0,1.5894957E-2,1.18597716E-1,7.2542205E-2,8.015647E-2,1.0224128E-1,1.4069375E-1,1.547001E-1,1.0032067E-1,9.827627E-2,7.999152E-2,4.0230606E-2,3.6234371E-3,0E0,0E0,0E0,0E0,0E0,0E0,0E0,0E0,0E0,0E0,0E0,0E0,0E0,0E0,0E0,0E0,0E0,0E0,0E0,0E0,0E0,0E0,0E0,0E0,0E0,0E0,0E0,0E0,0E0,0E0,0E0,0E0,0E0,0E0,0E0,0E0,0E0,0E0,0E0,0E0,0E0,0E0,0E0,0E0],"parents":[2147483647,0,0,1,1,2,2,3,3,4,4,5,5,6,6,7,7,8,8,9,9,10,10,11,11,12,12,13,13,14,14,15,15,16,16,17,17,18,18,20,20,21,21,22,22,23,23,24,24,25,25,26,26,28,28,29,29,31,31,32,32,35,35,36,36,37,37,38,38,39,39,40,40,41,41,42,42,45,45,46,46,47,47,48,48,49,49,50,50,51,51,52,52,53,53,54,54,55,55,56,56],"right_children":[2,4,6,8,10,12,14,16,18,20,22,24,26,28,30,32,34,36,38,-1,40,42,44,46,48,50,52,-1,54,56,-1,58,60,-1,-1,62,64,66,68,70,72,74,76,-1,-1,78,80,82,84,86,88,90,92,94,96,98,100,-1,-1,-1,-1,-1,-1,-1,-1,-1,-1,-1,-1,-1,-1,-1,-1,-1,-1,-1,-1,-1,-1,-1,-1,-1,-1,-1,-1,-1,-1,-1,-1,-1,-1,-1,-1,-1,-1,-1,-1,-1,-1,-1,-1],"split_conditions":[5.810171E-1,7.8684044E-1,8.181818E-1,6.666667E-2,6.4340234E-1,4.7885212E-1,1E0,7.094506E-1,9.090909E-2,5.7526696E-1,7.286766E-1,4.444173E-1,8.333333E-1,1.6862208E-1,9.6666664E-1,4.1615433E-1,6.7101157E-1,6.0434467E-1,4.340671E-1,-2.3007616E-2,6.855059E-1,7.086717E-1,1.8181819E-1,3.3333334E-1,4.6288177E-1,6.461521E-1,4E-1,-1.7972967E-2,5.204144E-1,1E0,-1.5561508E-2,5E-1,5.454594E-1,9.576551E-3,-6.6316025E-3,4.6666667E-1,4E-1,8.333333E-1,3.3333335E-2,7.580504E-1,7.429117E-1,5E-1,7.025946E-1,1.8912762E-3,6.717724E-3,4.1338545E-1,5.089538E-1,4E-1,2.1775149E-1,3.3333335E-2,5.0212324E-1,6.2567437E-1,7.4604154E-1,5.6819904E-1,9.0909094E-1,7.539247E-1,7.042099E-1,3.3973437E-3,-6.121424E-3,-2.155619E-2,-8.968112E-3,-4.493365E-3,5.263611E-3,-4.3783956E-3,-1.9167447E-2,7.7560395E-3,-3.0899416E-3,-9.783439E-3,-5.3637184E-4,-1.7731605E-2,1.17594005E-4,3.5612953E-3,-1.1534393E-3,3.474781E-3,-2.6688774E-4,-7.957618E-3,-1.8091778E-3,-4.3520494E-3,4.92409E-3,-6.762505E-4,-2.3338255E-2,-1.2092829E-4,-1.6085532E-2,-1.3392858E-2,1.072836E-3,-1.10921925E-2,3.719951E-4,-3.1664006E-3,4.8103617E-3,-1.3687951E-2,-2.569887E-3,1.8116232E-3,-6.52408E-3,-9.024751E-3,3.0415065E-3,9.473984E-3,4.1747577E-3,-1.5772382E-3,3.369929E-3,-2.8426857E-3,-1.4550705E-2],"split_indices":[203,140,94,205,0,70,101,28,143,28,168,140,29,21,44,182,0,105,140,0,14,0,3,5,196,175,51,0,98,135,0,1,189,0,0,44,44,22,177,77,14,1,7,0,0,35,182,9,35,107,28,14,182,133,185,28,0,0,0,0,0,0,0,0,0,0,0,0,0,0,0,0,0,0,0,0,0,0,0,0,0,0,0,0,0,0,0,0,0,0,0,0,0,0,0,0,0,0,0,0,0],"split_type":[0,0,0,0,0,0,0,0,0,0,0,0,0,0,0,0,0,0,0,0,0,0,0,0,0,0,0,0,0,0,0,0,0,0,0,0,0,0,0,0,0,0,0,0,0,0,0,0,0,0,0,0,0,0,0,0,0,0,0,0,0,0,0,0,0,0,0,0,0,0,0,0,0,0,0,0,0,0,0,0,0,0,0,0,0,0,0,0,0,0,0,0,0,0,0,0,0,0,0,0,0],"sum_hessian":[1.415E3,4.03E2,1.012E3,3.65E2,3.8E1,7.43E2,2.69E2,2.2E1,3.43E2,2.1E1,1.7E1,1.25E2,6.18E2,1.94E2,7.5E1,1.8E1,4E0,2.8E1,3.15E2,8E0,1.3E1,1.2E1,5E0,1.9E1,1.06E2,4.41E2,1.77E2,1E0,1.93E2,7.3E1,2E0,4E0,1.4E1,3E0,1E0,1.1E1,1.7E1,3.6E1,2.79E2,8E0,5E0,5E0,7E0,1E0,4E0,6E0,1.3E1,1.3E1,9.3E1,2.88E2,1.53E2,6.6E1,1.11E2,3.4E1,1.59E2,7.1E1,2E0,2E0,2E0,6E0,8E0,5E0,6E0,9E0,8E0,2.7E1,9E0,9E0,2.7E2,6E0,2E0,4E0,1E0,3E0,2E0,5E0,2E0,2E0,4E0,3E0,1E1,4E0,9E0,3E0,9E1,7E0,2.81E2,2.6E1,1.27E2,1.6E1,5E1,9.5E1,1.6E1,8E0,2.6E1,3.8E1,1.21E2,4.7E1,2.4E1,1E0,1E0],"tree_param":{"num_deleted":"0","num_feature":"210","num_nodes":"101","size_leaf_vector":"1"}},{"base_weights":[-1.0751664E-3,-1.0014852E-2,1.1941143E-2,-5.988536E-3,-5.1003423E-2,-1.5632426E-2,2.3400864E-2,-3.6760822E-2,-2.0426866E-3,-1.5151384E-1,-3.5001792E-2,4.3302488E-2,-2.7558343E-2,-8.616513E-2,2.5807595E-2,-1.3022533E-1,-1.0491454E-2,5.7938052E-3,-1.9609092E-2,-2.1103413E-1,-9.474881E-3,2.9284889E-2,-5.97194E-2,6.49584E-2,-5.053826E-2,-5.9227E-2,-4.3333084E-3,-1.6623667E-1,1.113944E-2,1.5688432E-2,4.928824E-2,-1.4708805E-1,8.738597E-4,-7.0883594E-2,1.0615276E-2,7.2446717E-3,-1.6540605E-1,-3.755392E-2,1.6051264E-2,-8.360178E-3,-2.4528673E-2,1.7942071E-2,-4.586287E-3,-9.9828176E-2,5.973285E-2,-1.3826935E-1,-3.5409693E-2,8.597335E-2,-3.209306E-2,2.4303398E-3,-9.403494E-3,3.256802E-2,-8.531005E-2,3.0629297E-3,-2.025873E-2,2.7492642E-5,-2.0793332E-2,-2.6491971E-3,2.7170286E-3,2.1270769E-2,-5.82246E-2,5.7284504E-2,-2.093369E-2,-1.664737E-2,-4.24663E-3,-9.249319E-3,6.799545E-3,2.3644231E-3,-6.3999505E-3,1.1787115E-3,-4.928861E-3,-4.9283835E-3,-1.8768553E-2,-5.2893492E-3,2.045428E-3,4.165396E-3,-2.4754803E-3,4.486084E-4,2.2427023E-3,-2.0780712E-3,-1.1925043E-2,9.435578E-3,2.2319925E-3,-1.7285926E-2,1.1590164E-3,-9.218191E-3,5.6235754E-4,1.0141777E-2,-1.1587441E-4,-4.8154755E-3,-5.333682E-4,-8.068608E-3,7.0790597E-3,-1.7988285E-2,-5.817747E-3,-1.0620468E-2,1.1649019E-3,6.191537E-4,4.906727E-3,-2.161049E-2,-1.7651318E-3,3.3228048E-3,8.452544E-3,-7.324198E-3,5.229965E-3],"categories":[],"categories_nodes":[],"categories_segments":[],"categories_sizes":[],"default_left":[0,0,0,0,0,0,0,0,0,0,0,0,0,0,0,0,0,0,0,0,0,0,0,0,0,0,0,0,0,0,0,0,0,0,0,0,0,0,0,0,0,0,0,0,0,0,0,0,0,0,0,0,0,0,0,0,0,0,0,0,0,0,0,0,0,0,0,0,0,0,0,0,0,0,0,0,0,0,0,0,0,0,0,0,0,0,0,0,0,0,0,0,0,0,0,0,0,0,0,0,0,0,0,0,0],"id":10,"left_children":[1,3,5,7,9,11,13,15,17,19,21,23,25,27,29,31,33,35,37,39,41,43,45,47,49,51,53,55,57,59,61,63,-1,65,67,69,71,73,75,-1,-1,77,-1,79,81,83,85,87,89,-1,-1,91,93,95,-1,-1,-1,-1,-1,97,99,101,103,-1,-1,-1,-1,-1,-1,-1,-1,-1,-1,-1,-1,-1,-1,-1,-1,-1,-1,-1,-1,-1,-1,-1,-1,-1,-1,-1,-1,-1,-1,-1,-1,-1,-1,-1,-1,-1,-1,-1,-1,-1,-1],"loss_changes":[1.6488777E-1,1.3832222E-1,1.8268937E-1,9.293477E-2,1.1532156E-1,1.2067833E-1,1.0981169E-1,2.122408E-1,9.3721725E-2,8.254245E-2,1.0662373E-1,6.22169E-2,1.04185164E-1,7.1973726E-2,9.42685E-2,4.5808256E-2,8.870542E-2,1.18189156E-1,1.3498577E-1,1.0047823E-2,4.8134658E-3,8.065638E-2,8.676118E-2,5.170791E-2,2.1817546E-2,1.4643604E-1,1.2232621E-1,3.4772024E-2,3.736111E-3,1.1718117E-1,6.858078E-2,2.7409166E-2,0E0,6.0309283E-2,5.2065153E-2,1.20763004E-1,1.0987073E-3,1.2565681E-1,7.520806E-2,0E0,0E0,8.0438855E-5,0E0,3.663011E-3,1.8619511E-2,5.9023365E-2,8.9041285E-2,2.7031586E-2,1.892162E-3,0E0,0E0,6.631591E-2,1.10137045E-1,7.7229865E-2,0E0,0E0,0E0,0E0,0E0,1.0951347E-1,1.24299906E-1,6.7965984E-2,5.3629775E-2,0E0,0E0,0E0,0E0,0E0,0E0,0E0,0E0,0E0,0E0,0E0,0E0,0E0,0E0,0E0,0E0,0E0,0E0,0E0,0E0,0E0,0E0,0E0,0E0,0E0,0E0,0E0,0E0,0E0,0E0,0E0,0E0,0E0,0E0,0E0,0E0,0E0,0E0,0E0,0E0,0E0,0E0],"parents":[2147483647,0,0,1,1,2,2,3,3,4,4,5,5,6,6,7,7,8,8,9,9,10,10,11,11,12,12,13,13,14,14,15,15,16,16,17,17,18,18,19,19,20,20,21,21,22,22,23,23,24,24,25,25,26,26,27,27,28,28,29,29,30,30,31,31,33,33,34,34,35,35,36,36,37,37,38,38,41,41,43,43,44,44,45,45,46,46,47,47,48,48,51,51,52,52,53,53,59,59,60,60,61,61,62,62],"right_children":[2,4,6,8,10,12,14,16,18,20,22,24,26,28,30,32,34,36,38,40,42,44,46,48,50,52,54,56,58,60,62,64,-1,66,68,70,72,74,76,-1,-1,78,-1,80,82,84,86,88,90,-1,-1,92,94,96,-1,-1,-1,-1,-1,98,100,102,104,-1,-1,-1,-1,-1,-1,-1,-1,-1,-1,-1,-1,-1,-1,-1,-1,-1,-1,-1,-1,-1,-1,-1,-1,-1,-1,-1,-1,-1,-1,-1,-1,-1,-1,-1,-1,-1,-1,-1,-1,-1,-1],"split_conditions":[6.4991575E-1,7.8684044E-1,4.5454547E-1,9.090909E-2,5.304423E-1,4.4129708E-1,1.9889979E-1,5.009567E-1,6.809708E-1,6.449264E-1,5.8423406E-1,6.6552806E-1,6.666667E-1,8.333333E-1,1E0,7.193011E-1,5.405253E-1,6.46913E-1,6.4340234E-1,5.106485E-1,6.415357E-1,5.7526696E-1,5.2937937E-1,7.400546E-1,3E-1,5.0369054E-1,1E0,5.265903E-1,1.6862208E-1,7.972395E-1,8.266515E-1,6.415357E-1,8.738597E-4,7.2082055E-1,7.184923E-1,7.8684044E-1,6.2298775E-1,7.243147E-1,7.06613E-1,-8.360178E-3,-2.4528673E-2,4.5614305E-1,-4.586287E-3,2.2353347E-1,6.415357E-1,1E0,6.2631226E-1,7.092E-1,6.008156E-1,2.4303398E-3,-9.403494E-3,4.1709185E-1,2E-1,3.6469796E-1,-2.025873E-2,2.7492642E-5,-2.0793332E-2,-2.6491971E-3,2.7170286E-3,7.085192E-1,5.417168E-1,6.855059E-1,7.3576516E-1,-1.664737E-2,-4.24663E-3,-9.249319E-3,6.799545E-3,2.3644231E-3,-6.3999505E-3,1.1787115E-3,-4.928861E-3,-4.9283835E-3,-1.8768553E-2,-5.2893492E-3,2.045428E-3,4.165396E-3,-2.4754803E-3,4.486084E-4,2.2427023E-3,-2.0780712E-3,-1.1925043E-2,9.435578E-3,2.2319925E-3,-1.7285926E-2,1.1590164E-3,-9.218191E-3,5.6235754E-4,1.0141777E-2,-1.1587441E-4,-4.8154755E-3,-5.333682E-4,-8.068608E-3,7.0790597E-3,-1.7988285E-2,-5.817747E-3,-1.0620468E-2,1.1649019E-3,6.191537E-4,4.906727E-3,-2.161049E-2,-1.7651318E-3,3.3228048E-3,8.452544E-3,-7.324198E-3,5.229965E-3],"split_indices":[203,140,192,73,35,77,140,0,189,21,56,63,5,1,208,42,56,203,154,0,0,21,70,154,2,7,58,7,7,21,77,182,0,133,105,133,0,63,91,0,0,0,0,0,175,40,14,126,42,0,0,49,2,42,0,0,0,0,0,133,168,14,175,0,0,0,0,0,0,0,0,0,0,0,0,0,0,0,0,0,0,0,0,0,0,0,0,0,0,0,0,0,0,0,0,0,0,0,0,0,0,0,0,0,0],"split_type":[0,0,0,0,0,0,0,0,0,0,0,0,0,0,0,0,0,0,0,0,0,0,0,0,0,0,0,0,0,0,0,0,0,0,0,0,0,0,0,0,0,0,0,0,0,0,0,0,0,0,0,0,0,0,0,0,0,0,0,0,0,0,0,0,0,0,0,0,0,0,0,0,0,0,0,0,0,0,0,0,0,0,0,0,0,0,0,0,0,0,0,0,0,0,0,0,0,0,0,0,0,0,0,0,0],"sum_hessian":[1.415E3,8.39E2,5.76E2,7.65E2,7.4E1,1.69E2,4.07E2,8.6E1,6.79E2,9E0,6.5E1,2.8E1,1.41E2,8E0,3.99E2,1.8E1,6.8E1,4.7E2,2.09E2,6E0,3E0,1.8E1,4.7E1,2.3E1,5E0,5.9E1,8.2E1,4E0,4E0,2.8E2,1.19E2,1.6E1,2E0,1.7E1,5.1E1,4.67E2,3E0,1.39E2,7E1,2E0,4E0,2E0,1E0,3E0,1.5E1,1E1,3.7E1,1.9E1,4E0,2E0,3E0,1.3E1,4.6E1,8E1,2E0,1E0,3E0,1E0,3E0,2.61E2,1.9E1,1.07E2,1.2E1,1.3E1,3E0,1.5E1,2E0,4.4E1,7E0,4.33E2,3.4E1,1E0,2E0,1.1E2,2.9E1,4.3E1,2.7E1,1E0,1E0,1E0,2E0,7E0,8E0,8E0,2E0,1.5E1,2.2E1,1.6E1,3E0,2E0,2E0,3E0,1E1,9E0,3.7E1,5E0,7.5E1,1.7E2,9.1E1,3E0,1.6E1,5.8E1,4.9E1,7E0,5E0],"tree_param":{"num_deleted":"0","num_feature":"210","num_nodes":"105","size_leaf_vector":"1"}},{"base_weights":[-1.1110574E-3,-1.6437728E-2,5.5006593E-3,-1.04568675E-2,-7.2490305E-2,-1.2478459E-2,1.3562192E-2,1.4125232E-1,-1.2410102E-2,-1.5001407E-1,-2.673671E-2,6.0708575E-2,-1.7790128E-2,1.1786736E-2,8.695084E-2,1.654644E-2,2.2202046E-3,-7.593968E-2,-8.140326E-3,1.1239231E-2,-1.91264E-1,2.4949056E-3,-1.1061203E-1,2.121284E-2,1.02032594E-1,-3.6247186E-3,-4.638101E-2,3.9272737E-3,3.032955E-2,1.6827554E-2,1.1729527E-1,-3.9358195E-2,-1.7912442E-2,-5.075676E-3,-7.828889E-2,-1.1077017E-3,2.237032E-3,-2.057157E-1,-1.6147703E-3,5.4738283E-2,-3.3865504E-2,-9.198834E-3,-1.4933753E-2,3.343896E-2,-2.6611825E-3,3.6158368E-3,1.2509893E-2,5.27961E-2,-1.3519136E-2,-1.14955716E-1,-2.4139926E-2,2.4338732E-2,-9.598364E-3,-1.6279373E-2,4.0723417E-2,5.794391E-3,2.5929252E-3,1.3037746E-2,-6.76325E-4,-6.8662628E-3,8.769907E-3,-4.820312E-3,8.79827E-5,-1.7798496E-2,-1.0642359E-3,-1.0634578E-2,-2.296862E-2,5.7682954E-3,1.559046E-3,2.2097598E-3,-7.160464E-3,-1.974167E-3,5.943418E-4,1.2069007E-3,3.727282E-3,6.49349E-3,-7.405183E-3,6.723224E-4,-5.000072E-3,-1.7759912E-2,-1.5759388E-3,-4.460962E-3,2.8671196E-3,-2.883361E-3,3.983238E-3,6.2920013E-4,-3.5943098E-3,-1.0380367E-2,4.009318E-4,4.8579504E-3,-1.4711996E-3,7.299781E-5,7.2392024E-4],"categories":[],"categories_nodes":[],"categories_segments":[],"categories_sizes":[],"default_left":[0,0,0,0,0,0,0,0,0,0,0,0,0,0,0,0,0,0,0,0,0,0,0,0,0,0,0,0,0,0,0,0,0,0,0,0,0,0,0,0,0,0,0,0,0,0,0,0,0,0,0,0,0,0,0,0,0,0,0,0,0,0,0,0,0,0,0,0,0,0,0,0,0,0,0,0,0,0,0,0,0,0,0,0,0,0,0,0,0,0,0,0,0],"id":11,"left_children":[1,3,5,7,9,11,13,15,17,19,21,23,25,27,29,-1,-1,31,33,35,37,39,41,43,45,47,49,51,53,55,57,59,-1,61,63,-1,-1,65,-1,67,69,71,-1,73,-1,-1,-1,75,77,79,81,83,85,87,89,91,-1,-1,-1,-1,-1,-1,-1,-1,-1,-1,-1,-1,-1,-1,-1,-1,-1,-1,-1,-1,-1,-1,-1,-1,-1,-1,-1,-1,-1,-1,-1,-1,-1,-1,-1,-1,-1],"loss_changes":[1.4358164E-1,1.423906E-1,1.436591E-1,1.16430245E-1,1.4141577E-1,1.2042483E-1,8.80992E-2,1.0738611E-2,1.032733E-1,1.01924956E-1,6.6474855E-2,3.2110177E-2,1.1606734E-1,9.7378634E-2,3.207183E-2,0E0,0E0,8.354159E-2,7.699573E-2,1.2414127E-3,2.7046919E-2,4.174514E-2,2.611722E-2,7.90639E-3,1.06713995E-2,1.08456224E-1,1.4211665E-1,1.3026634E-1,9.706791E-2,4.52279E-4,1.8734291E-2,7.676512E-2,0E0,8.891099E-2,9.926722E-2,0E0,0E0,1.7752349E-3,0E0,1.381915E-4,2.9038275E-2,5.962597E-4,0E0,3.6944821E-4,0E0,0E0,0E0,4.946222E-2,1.2218428E-1,1.4012304E-1,8.019401E-2,1.5602916E-1,1.1911636E-1,6.611906E-2,7.170209E-2,2.398403E-5,0E0,0E0,0E0,0E0,0E0,0E0,0E0,0E0,0E0,0E0,0E0,0E0,0E0,0E0,0E0,0E0,0E0,0E0,0E0,0E0,0E0,0E0,0E0,0E0,0E0,0E0,0E0,0E0,0E0,0E0,0E0,0E0,0E0,0E0,0E0,0E0,0E0],"parents":[2147483647,0,0,1,1,2,2,3,3,4,4,5,5,6,6,7,7,8,8,9,9,10,10,11,11,12,12,13,13,14,14,17,17,18,18,19,19,20,20,21,21,22,22,23,23,24,24,25,25,26,26,27,27,28,28,29,29,30,30,31,31,33,33,34,34,37,37,39,39,40,40,41,41,43,43,47,47,48,48,49,49,50,50,51,51,52,52,53,53,54,54,55,55],"right_children":[2,4,6,8,10,12,14,16,18,20,22,24,26,28,30,-1,-1,32,34,36,38,40,42,44,46,48,50,52,54,56,58,60,-1,62,64,-1,-1,66,-1,68,70,72,-1,74,-1,-1,-1,76,78,80,82,84,86,88,90,92,-1,-1,-1,-1,-1,-1,-1,-1,-1,-1,-1,-1,-1,-1,-1,-1,-1,-1,-1,-1,-1,-1,-1,-1,-1,-1,-1,-1,-1,-1,-1,-1,-1,-1,-1,-1,-1],"split_conditions":[5.9111106E-1,7.8684044E-1,3.6363637E-1,1.6862208E-1,5.7526696E-1,3.083497E-1,8.6082536E-1,6.415357E-1,6.666667E-2,5.52224E-1,8.333333E-1,1.8181819E-1,7E-1,7.218295E-1,6.666667E-1,1.654644E-2,2.2202046E-3,6.415357E-1,8.4733534E-1,6.7599255E-1,6.8576616E-1,6.317042E-1,1.6666667E-1,7.1750146E-1,6.585367E-1,4.596696E-1,5.492425E-1,6.362842E-1,5.5477244E-1,3.3333334E-1,8.6079115E-1,7.094506E-1,-1.7912442E-2,4.0537763E-1,5.973552E-1,-1.1077017E-3,2.237032E-3,5.8979475E-1,-1.6147703E-3,1E0,5.877193E-1,2.2353347E-1,-1.4933753E-2,4.412958E-1,-2.6611825E-3,3.6158368E-3,1.2509893E-2,7.0368344E-1,6.7599255E-1,6.4119685E-1,6.5221155E-1,5.455738E-1,6.809708E-1,4.9263522E-1,1E0,1.3333334E-1,2.5929252E-3,1.3037746E-2,-6.76325E-4,-6.8662628E-3,8.769907E-3,-4.820312E-3,8.79827E-5,-1.7798496E-2,-1.0642359E-3,-1.0634578E-2,-2.296862E-2,5.7682954E-3,1.559046E-3,2.2097598E-3,-7.160464E-3,-1.974167E-3,5.943418E-4,1.2069007E-3,3.727282E-3,6.49349E-3,-7.405183E-3,6.723224E-4,-5.000072E-3,-1.7759912E-2,-1.5759388E-3,-4.460962E-3,2.8671196E-3,-2.883361E-3,3.983238E-3,6.2920013E-4,-3.5943098E-3,-1.0380367E-2,4.009318E-4,4.8579504E-3,-1.4711996E-3,7.299781E-5,7.2392024E-4],"split_indices":[203,140,122,91,28,21,147,0,205,98,15,59,93,175,5,0,0,182,84,0,35,63,2,203,56,77,49,189,154,5,0,28,0,0,21,0,0,175,0,3,175,0,0,182,0,0,0,56,203,147,35,35,126,189,129,2,0,0,0,0,0,0,0,0,0,0,0,0,0,0,0,0,0,0,0,0,0,0,0,0,0,0,0,0,0,0,0,0,0,0,0,0,0],"split_type":[0,0,0,0,0,0,0,0,0,0,0,0,0,0,0,0,0,0,0,0,0,0,0,0,0,0,0,0,0,0,0,0,0,0,0,0,0,0,0,0,0,0,0,0,0,0,0,0,0,0,0,0,0,0,0,0,0,0,0,0,0,0,0,0,0,0,0,0,0,0,0,0,0,0,0,0,0,0,0,0,0,0,0,0,0,0,0,0,0,0,0,0,0],"sum_hessian":[1.415E3,4.26E2,9.89E2,3.86E2,4E1,3.06E2,6.83E2,4E0,3.82E2,1.4E1,2.6E1,2E1,2.86E2,6.68E2,1.5E1,3E0,1E0,2.3E1,3.59E2,3E0,1.1E1,2E1,6E0,1.1E1,9E0,1.92E2,9.4E1,4.7E2,1.98E2,5E0,1E1,1.8E1,5E0,3.45E2,1.4E1,1E0,2E0,1E1,1E0,8E0,1.2E1,2E0,4E0,9E0,2E0,3E0,6E0,2.8E1,1.64E2,2.2E1,7.2E1,1.87E2,2.83E2,3.6E1,1.62E2,3E0,2E0,9E0,1E0,1.5E1,3E0,4.1E1,3.04E2,5E0,9E0,3E0,7E0,7E0,1E0,5E0,7E0,1E0,1E0,2E0,7E0,2.6E1,2E0,1.06E2,5.8E1,1.3E1,9E0,5.2E1,2E1,4.2E1,1.45E2,1.77E2,1.06E2,6E0,3E1,1.42E2,2E1,1E0,2E0],"tree_param":{"num_deleted":"0","num_feature":"210","num_nodes":"93","size_leaf_vector":"1"}},{"base_weights":[-1.0489195E-3,-8.895712E-3,1.02436235E-2,-2.8011186E-2,-3.2684542E-3,2.2516824E-2,-6.211073E-3,-3.910874E-2,2.4057245E-2,-3.2318167E-2,2.2276726E-3,-5.2636046E-2,2.6227294E-2,-5.738896E-2,3.5666728E-3,-2.1726996E-2,-8.940715E-2,6.7591935E-2,-9.796632E-3,-1.3266203E-1,-2.129948E-2,2.5760455E-2,-7.191153E-3,-7.2885007E-3,-1.5094295E-1,3.1531215E-2,-3.455255E-2,-1.1711851E-1,-3.195764E-3,-6.990963E-2,1.1241853E-2,-8.757097E-2,-9.777307E-3,-3.8688004E-2,-1.5575142E-1,-1.00853685E-2,9.675508E-2,-7.2888464E-2,2.97827E-2,-2.204475E-2,-7.870436E-4,4.6938874E-2,-3.283081E-2,3.60343E-2,-5.0215907E-2,-8.305523E-2,-3.0820621E-3,3.1289697E-2,-6.755592E-2,-1.8927837E-2,1.1993647E-4,8.2473926E-2,2.6261609E-2,7.947753E-3,-1.5104592E-1,2.8897157E-2,-1.7133105E-1,4.4284288E-2,-1.11265056E-1,-1.28162E-1,-1.0597516E-2,-9.864662E-3,3.2231268E-2,-1.4319615E-2,-1.3997778E-5,-2.992355E-3,4.1272803E-3,-6.6147656E-3,3.7449382E-3,-2.0193364E-2,4.4824216E-3,-2.177467E-3,4.965723E-4,3.9979564E-3,1.1304845E-2,-2.0893019E-4,-9.613997E-3,9.603468E-4,9.384564E-3,-2.5377274E-3,1.1704833E-3,-8.32688E-3,7.557922E-3,-4.916746E-3,1.9454364E-3,-2.034477E-2,3.9267363E-3,-9.889641E-3,4.7364435E-3,-2.3642441E-2,-2.9936405E-3,-2.7067936E-3,1.012301E-3,-4.306108E-4,5.3508403E-3,-8.136471E-4,-1.0445672E-2,1.0970029E-2,3.9299284E-3,3.683149E-3,7.050341E-4,3.0047274E-3,-8.796214E-3,-1.7377809E-2,-7.326454E-4,7.006541E-3,-3.5626234E-3,-1.8420462E-2,-1.9873084E-4,6.561794E-4,1.0606148E-2,-2.3461778E-4,-1.5436338E-2,-3.65455E-3,-1.6220544E-2,-6.3896044E-3,1.7376438E-3,5.9556647E-4,-7.429207E-3,7.444901E-3,1.7124672E-3],"categories":[],"categories_nodes":[],"categories_segments":[],"categories_sizes":[],"default_left":[0,0,0,0,0,0,0,0,0,0,0,0,0,0,0,0,0,0,0,0,0,0,0,0,0,0,0,0,0,0,0,0,0,0,0,0,0,0,0,0,0,0,0,0,0,0,0,0,0,0,0,0,0,0,0,0,0,0,0,0,0,0,0,0,0,0,0,0,0,0,0,0,0,0,0,0,0,0,0,0,0,0,0,0,0,0,0,0,0,0,0,0,0,0,0,0,0,0,0,0,0,0,0,0,0,0,0,0,0,0,0,0,0,0,0,0,0,0,0,0,0],"id":12,"left_children":[1,3,5,7,9,11,13,15,17,19,21,23,25,27,29,31,33,35,37,39,41,43,45,47,49,51,53,55,57,59,61,63,65,67,69,71,73,75,77,-1,79,81,83,85,87,89,91,93,95,-1,-1,97,99,101,103,105,107,109,111,113,115,117,119,-1,-1,-1,-1,-1,-1,-1,-1,-1,-1,-1,-1,-1,-1,-1,-1,-1,-1,-1,-1,-1,-1,-1,-1,-1,-1,-1,-1,-1,-1,-1,-1,-1,-1,-1,-1,-1,-1,-1,-1,-1,-1,-1,-1,-1,-1,-1,-1,-1,-1,-1,-1,-1,-1,-1,-1,-1,-1],"loss_changes":[1.2556322E-1,8.983504E-2,1.1747384E-1,1.10728964E-1,1.033726E-1,9.4238356E-2,1.2480536E-1,1.3531849E-1,5.077199E-2,1.110571E-1,1.20985135E-1,7.0227474E-2,1.0360359E-1,1.2910312E-1,1.1921414E-1,9.198795E-2,1.2857127E-1,3.4955524E-2,5.2113466E-2,1.155936E-1,7.550764E-2,1.2357831E-1,1.2131964E-1,3.0013904E-2,2.938921E-2,7.648936E-2,1.2992658E-1,1.5535271E-1,1.17812276E-1,6.7743234E-2,8.4933504E-2,8.7520525E-2,1.05110295E-1,5.265413E-2,1.6652304E-1,9.878105E-4,5.656086E-3,1.296863E-2,1.590439E-2,0E0,1.8329272E-3,5.8502093E-2,7.014388E-2,1.1483678E-1,9.493911E-2,1.5585813E-1,1.1778276E-1,6.557554E-3,1.0113221E-2,0E0,0E0,2.7427047E-2,5.3957567E-2,4.5034274E-2,2.1596193E-2,1.8434059E-2,3.0154735E-2,3.659028E-2,3.249737E-2,2.5261506E-2,1.7510962E-2,9.829167E-2,5.9950657E-2,0E0,0E0,0E0,0E0,0E0,0E0,0E0,0E0,0E0,0E0,0E0,0E0,0E0,0E0,0E0,0E0,0E0,0E0,0E0,0E0,0E0,0E0,0E0,0E0,0E0,0E0,0E0,0E0,0E0,0E0,0E0,0E0,0E0,0E0,0E0,0E0,0E0,0E0,0E0,0E0,0E0,0E0,0E0,0E0,0E0,0E0,0E0,0E0,0E0,0E0,0E0,0E0,0E0,0E0,0E0,0E0,0E0,0E0],"parents":[2147483647,0,0,1,1,2,2,3,3,4,4,5,5,6,6,7,7,8,8,9,9,10,10,11,11,12,12,13,13,14,14,15,15,16,16,17,17,18,18,19,19,20,20,21,21,22,22,23,23,24,24,25,25,26,26,27,27,28,28,29,29,30,30,31,31,32,32,33,33,34,34,35,35,36,36,37,37,38,38,40,40,41,41,42,42,43,43,44,44,45,45,46,46,47,47,48,48,51,51,52,52,53,53,54,54,55,55,56,56,57,57,58,58,59,59,60,60,61,61,62,62],"right_children":[2,4,6,8,10,12,14,16,18,20,22,24,26,28,30,32,34,36,38,40,42,44,46,48,50,52,54,56,58,60,62,64,66,68,70,72,74,76,78,-1,80,82,84,86,88,90,92,94,96,-1,-1,98,100,102,104,106,108,110,112,114,116,118,120,-1,-1,-1,-1,-1,-1,-1,-1,-1,-1,-1,-1,-1,-1,-1,-1,-1,-1,-1,-1,-1,-1,-1,-1,-1,-1,-1,-1,-1,-1,-1,-1,-1,-1,-1,-1,-1,-1,-1,-1,-1,-1,-1,-1,-1,-1,-1,-1,-1,-1,-1,-1,-1,-1,-1,-1,-1,-1],"split_conditions":[6.363636E-1,5.16326E-1,6.917724E-1,7.0368344E-1,4.6544486E-1,6.666667E-2,5.5811137E-1,7.3333335E-1,6.116217E-1,6.666667E-2,5.587102E-1,7.086717E-1,9.3333334E-1,8.181818E-1,1E-1,4.0537763E-1,6.362626E-1,5.0631803E-1,6.023632E-1,6.7799836E-1,3.4937152E-1,7.425195E-1,3.0426106E-1,6.275381E-1,8.140501E-1,4.4944206E-1,8.333333E-1,5.0631803E-1,7E-1,6.7799836E-1,7.1456915E-1,6.4120024E-1,6.4139843E-1,6.7908245E-1,6.703184E-1,6.188425E-1,3.207185E-1,5.976752E-1,6.612611E-1,-2.204475E-2,1.6666667E-1,4.1338545E-1,6.4691365E-1,1.4785853E-1,6.4120024E-1,4.920814E-1,6.1212987E-1,7.2727275E-1,9.0909094E-1,-1.8927837E-2,1.1993647E-4,8.333333E-1,7.108047E-1,8.004229E-1,7.4659085E-1,7E-1,8.666667E-1,6.756331E-1,3.3333334E-1,5.963011E-1,5.7191724E-1,8.148817E-1,6.4119345E-1,-1.4319615E-2,-1.3997778E-5,-2.992355E-3,4.1272803E-3,-6.6147656E-3,3.7449382E-3,-2.0193364E-2,4.4824216E-3,-2.177467E-3,4.965723E-4,3.9979564E-3,1.1304845E-2,-2.0893019E-4,-9.613997E-3,9.603468E-4,9.384564E-3,-2.5377274E-3,1.1704833E-3,-8.32688E-3,7.557922E-3,-4.916746E-3,1.9454364E-3,-2.034477E-2,3.9267363E-3,-9.889641E-3,4.7364435E-3,-2.3642441E-2,-2.9936405E-3,-2.7067936E-3,1.012301E-3,-4.306108E-4,5.3508403E-3,-8.136471E-4,-1.0445672E-2,1.0970029E-2,3.9299284E-3,3.683149E-3,7.050341E-4,3.0047274E-3,-8.796214E-3,-1.7377809E-2,-7.326454E-4,7.006541E-3,-3.5626234E-3,-1.8420462E-2,-1.9873084E-4,6.561794E-4,1.0606148E-2,-2.3461778E-4,-1.5436338E-2,-3.65455E-3,-1.6220544E-2,-6.3896044E-3,1.7376438E-3,5.9556647E-4,-7.429207E-3,7.444901E-3,1.7124672E-3],"split_indices":[87,203,119,56,70,121,168,163,133,107,7,63,37,80,205,0,154,105,161,105,112,70,154,147,0,91,8,98,114,112,70,42,98,175,28,0,28,119,112,0,1,35,91,168,42,147,56,3,3,0,0,1,63,140,28,2,30,98,8,112,84,168,91,0,0,0,0,0,0,0,0,0,0,0,0,0,0,0,0,0,0,0,0,0,0,0,0,0,0,0,0,0,0,0,0,0,0,0,0,0,0,0,0,0,0,0,0,0,0,0,0,0,0,0,0,0,0,0,0,0,0],"split_type":[0,0,0,0,0,0,0,0,0,0,0,0,0,0,0,0,0,0,0,0,0,0,0,0,0,0,0,0,0,0,0,0,0,0,0,0,0,0,0,0,0,0,0,0,0,0,0,0,0,0,0,0,0,0,0,0,0,0,0,0,0,0,0,0,0,0,0,0,0,0,0,0,0,0,0,0,0,0,0,0,0,0,0,0,0,0,0,0,0,0,0,0,0,0,0,0,0,0,0,0,0,0,0,0,0,0,0,0,0,0,0,0,0,0,0,0,0,0,0,0,0],"sum_hessian":[1.415E3,8.35E2,5.8E2,1.89E2,6.46E2,3.32E2,2.48E2,1.56E2,3.3E1,1.02E2,5.44E2,1.5E1,3.17E2,3.9E1,2.09E2,1.17E2,3.9E1,1.4E1,1.9E1,9E0,9.3E1,1.55E2,3.89E2,1.1E1,4E0,2.92E2,2.5E1,1.8E1,2.1E1,1.9E1,1.9E2,1.7E1,1E2,2.3E1,1.6E1,4E0,1E1,7E0,1.2E1,5E0,4E0,1.3E1,8E1,1.37E2,1.8E1,1.9E1,3.7E2,7E0,4E0,3E0,1E0,2.6E1,2.66E2,1.9E1,6E0,5E0,1.3E1,1.5E1,6E0,9E0,1E1,9.5E1,9.5E1,1E1,7E0,7.2E1,2.8E1,1.7E1,6E0,1.3E1,3E0,2E0,2E0,3E0,7E0,2E0,5E0,1E1,2E0,1E0,3E0,2E0,1.1E1,6.1E1,1.9E1,1E0,1.36E2,1.2E1,6E0,4E0,1.5E1,1.31E2,2.39E2,3E0,4E0,2E0,2E0,1.5E1,1.1E1,1.71E2,9.5E1,1.6E1,3E0,5E0,1E0,3E0,2E0,1.2E1,1E0,1E1,5E0,2E0,4E0,3E0,6E0,3E0,7E0,7.7E1,1.8E1,2.4E1,7.1E1],"tree_param":{"num_deleted":"0","num_feature":"210","num_nodes":"121","size_leaf_vector":"1"}},{"base_weights":[-1.0614387E-3,-5.9606936E-3,1.5079627E-2,-3.8548075E-2,-3.0870435E-3,3.0940797E-2,-2.4481593E-2,-1.3570967E-1,-2.8475964E-2,1.228432E-2,-9.946385E-3,-1.6650734E-2,3.2489546E-2,-1.1514447E-1,-1.36547275E-2,-2.1284746E-2,-5.3600147E-3,-7.494756E-3,-8.806538E-2,3.7483856E-2,-2.232593E-3,-4.627383E-2,-5.256133E-3,1.7392982E-2,5.3416442E-2,-5.698204E-4,-1.914326E-2,-1.4782781E-2,-8.700276E-3,1.6563734E-3,-3.556563E-3,5.2254245E-2,-2.168462E-2,-1.4523146E-1,-4.17146E-2,-3.6810037E-2,4.5054235E-2,-6.515279E-2,1.0364977E-2,-5.9607252E-2,6.405357E-2,-1.09977685E-2,1.4815093E-2,1.2469941E-2,1.2362158E-2,6.3054614E-2,7.0771044E-3,1.3517693E-2,-2.8459937E-3,7.8377E-3,-4.3904066E-2,3.7924945E-4,8.6328E-3,-1.5359695E-4,-6.8595745E-3,-4.1567865E-3,-1.6891137E-2,1.1146648E-3,-8.861663E-3,2.5229254E-3,-1.516861E-2,4.905899E-3,-6.6328156E-3,4.1766027E-5,-1.2689072E-2,5.739186E-3,-8.4813355E-6,-1.3859774E-2,-4.28157E-3,-1.3469567E-3,8.8127265E-3,-1.8861218E-3,1.8540658E-3,-5.8926065E-3,2.368747E-3,3.3666969E-3,-1.161671E-3,3.2652933E-3,8.916183E-3,-1.4725232E-3,5.313598E-3,1.8926979E-3,-1.3550818E-4,1.9703766E-3,-8.142991E-3,-9.896987E-3,1.3929047E-5],"categories":[],"categories_nodes":[],"categories_segments":[],"categories_sizes":[],"default_left":[0,0,0,0,0,0,0,0,0,0,0,0,0,0,0,0,0,0,0,0,0,0,0,0,0,0,0,0,0,0,0,0,0,0,0,0,0,0,0,0,0,0,0,0,0,0,0,0,0,0,0,0,0,0,0,0,0,0,0,0,0,0,0,0,0,0,0,0,0,0,0,0,0,0,0,0,0,0,0,0,0,0,0,0,0,0,0],"id":13,"left_children":[1,3,5,7,9,11,13,15,17,19,21,-1,23,25,27,-1,29,31,33,35,37,39,41,43,45,47,-1,-1,49,-1,-1,51,53,55,57,59,61,63,65,67,69,71,73,75,-1,77,79,81,-1,83,85,-1,-1,-1,-1,-1,-1,-1,-1,-1,-1,-1,-1,-1,-1,-1,-1,-1,-1,-1,-1,-1,-1,-1,-1,-1,-1,-1,-1,-1,-1,-1,-1,-1,-1,-1,-1],"loss_changes":[1.1206602E-1,1.0167283E-1,2.0782828E-1,8.225429E-2,1.0555962E-1,7.757789E-2,9.167923E-2,7.929821E-2,1.0061085E-1,1.13121904E-1,1.17663115E-1,0E0,7.331312E-2,8.729777E-2,5.5882704E-2,0E0,3.2379809E-3,5.285076E-2,4.9585283E-2,6.521337E-2,1.5682569E-1,1.2003033E-1,7.092132E-2,7.0628E-2,4.332313E-2,2.3492246E-3,0E0,0E0,4.9248856E-2,0E0,0E0,1.948788E-2,4.7154427E-2,1.5071422E-2,3.3218674E-2,8.222205E-2,4.9198076E-2,1.3364309E-1,8.108933E-2,8.82383E-2,1.7983448E-2,1.1137663E-1,9.102934E-2,6.82963E-2,0E0,6.13786E-2,1.885788E-2,3.474519E-4,0E0,6.304129E-2,6.549643E-2,0E0,0E0,0E0,0E0,0E0,0E0,0E0,0E0,0E0,0E0,0E0,0E0,0E0,0E0,0E0,0E0,0E0,0E0,0E0,0E0,0E0,0E0,0E0,0E0,0E0,0E0,0E0,0E0,0E0,0E0,0E0,0E0,0E0,0E0,0E0,0E0],"parents":[2147483647,0,0,1,1,2,2,3,3,4,4,5,5,6,6,7,7,8,8,9,9,10,10,12,12,13,13,14,14,16,16,17,17,18,18,19,19,20,20,21,21,22,22,23,23,24,24,25,25,28,28,31,31,32,32,33,33,34,34,35,35,36,36,37,37,38,38,39,39,40,40,41,41,42,42,43,43,45,45,46,46,47,47,49,49,50,50],"right_children":[2,4,6,8,10,12,14,16,18,20,22,-1,24,26,28,-1,30,32,34,36,38,40,42,44,46,48,-1,-1,50,-1,-1,52,54,56,58,60,62,64,66,68,70,72,74,76,-1,78,80,82,-1,84,86,-1,-1,-1,-1,-1,-1,-1,-1,-1,-1,-1,-1,-1,-1,-1,-1,-1,-1,-1,-1,-1,-1,-1,-1,-1,-1,-1,-1,-1,-1,-1,-1,-1,-1,-1,-1],"split_conditions":[1E0,3.7248993E-1,8.333333E-1,3.5894117E-1,5.8594525E-1,2.0910649E-1,4.7793853E-1,6.4139843E-1,6.917444E-1,6.13956E-1,4.24388E-1,-1.6650734E-2,6.593585E-1,6.5662414E-1,3.0665874E-1,-2.1284746E-2,5.372264E-1,5.254147E-1,4.5454547E-1,4.4800287E-1,4.6610886E-1,7.59003E-1,7.2047096E-1,1E0,8.0238587E-1,2.7272728E-1,-1.914326E-2,-1.4782781E-2,7.1780246E-1,1.6563734E-3,-3.556563E-3,6.243865E-1,8.333333E-1,5.293282E-1,7.2727275E-1,8.666667E-1,1E0,6.261511E-1,4.9320543E-1,1.6666667E-1,3.9272478E-1,7.166259E-1,1.3333334E-1,6.008521E-1,1.2362158E-2,5.4545456E-1,7.3333335E-1,4.4379932E-1,-2.8459937E-3,6.8947685E-1,6.7517793E-1,3.7924945E-4,8.6328E-3,-1.5359695E-4,-6.8595745E-3,-4.1567865E-3,-1.6891137E-2,1.1146648E-3,-8.861663E-3,2.5229254E-3,-1.516861E-2,4.905899E-3,-6.6328156E-3,4.1766027E-5,-1.2689072E-2,5.739186E-3,-8.4813355E-6,-1.3859774E-2,-4.28157E-3,-1.3469567E-3,8.8127265E-3,-1.8861218E-3,1.8540658E-3,-5.8926065E-3,2.368747E-3,3.3666969E-3,-1.161671E-3,3.2652933E-3,8.916183E-3,-1.4725232E-3,5.313598E-3,1.8926979E-3,-1.3550818E-4,1.9703766E-3,-8.142991E-3,-9.896987E-3,1.3929047E-5],"split_indices":[61,70,29,196,140,63,49,49,175,63,84,0,140,189,35,0,0,147,3,70,28,42,161,184,63,3,0,0,49,0,0,140,170,161,3,9,149,70,77,170,21,154,198,140,0,45,128,0,0,154,196,0,0,0,0,0,0,0,0,0,0,0,0,0,0,0,0,0,0,0,0,0,0,0,0,0,0,0,0,0,0,0,0,0,0,0,0],"split_type":[0,0,0,0,0,0,0,0,0,0,0,0,0,0,0,0,0,0,0,0,0,0,0,0,0,0,0,0,0,0,0,0,0,0,0,0,0,0,0,0,0,0,0,0,0,0,0,0,0,0,0,0,0,0,0,0,0,0,0,0,0,0,0,0,0,0,0,0,0,0,0,0,0,0,0,0,0,0,0,0,0,0,0,0,0,0,0],"sum_hessian":[1.415E3,1.086E3,3.29E2,8.7E1,9.99E2,2.35E2,9.4E1,7E0,8E1,3.08E2,6.91E2,1E0,2.34E2,9E0,8.5E1,4E0,3E0,6E1,2E1,1.12E2,1.96E2,7.8E1,6.13E2,1.37E2,9.7E1,4E0,5E0,2E0,8.3E1,2E0,1E0,1.1E1,4.9E1,8E0,1.2E1,1E1,1.02E2,3.2E1,1.64E2,7E1,8E0,4.77E2,1.36E2,1.32E2,5E0,8E1,1.7E1,3E0,1E0,5.7E1,2.6E1,5E0,6E0,3.5E1,1.4E1,2E0,6E0,6E0,6E0,7E0,3E0,9.9E1,3E0,1.6E1,1.6E1,2.9E1,1.35E2,1.1E1,5.9E1,2E0,6E0,3.77E2,1E2,1.4E1,1.22E2,7E1,6.2E1,3.8E1,4.2E1,1.2E1,5E0,2E0,1E0,5.1E1,6E0,1.1E1,1.5E1],"tree_param":{"num_deleted":"0","num_feature":"210","num_nodes":"87","size_leaf_vector":"1"}},{"base_weights":[-1.0418982E-3,-4.005324E-3,2.3627678E-2,-5.222098E-4,-2.4336359E-2,-9.637689E-2,2.8365092E-2,-3.6670893E-2,2.481657E-3,-1.7721126E-2,-1.03870906E-1,-1.519979E-2,9.910087E-3,-8.12679E-2,3.2797717E-2,-1.4035663E-1,-2.2163758E-2,-6.832752E-3,1.2895908E-2,-2.6430092E-3,-5.0620656E-2,-1.6883692E-1,-1.4785328E-2,1.5810013E-3,-9.448826E-5,-1.31598115E-2,1.2928367E-2,4.1861214E-2,-2.4582665E-2,-1.5690854E-2,-4.9432665E-3,1.3784744E-2,-4.3108318E-2,-2.8674899E-2,2.0733147E-3,4.862532E-3,3.1344287E-2,-1.4194039E-1,2.1831333E-3,-1.07441634E-1,-1.4036505E-2,-4.8752637E-3,-1.7902715E-2,1.12645505E-2,-5.327335E-3,-1.595828E-3,3.535083E-3,5.0706095E-3,5.215575E-2,7.906615E-2,-7.465117E-2,-5.787143E-3,2.1522583E-3,-3.2533058E-3,-1.4865908E-2,-6.616203E-4,-7.679046E-3,-2.1381935E-3,1.4849851E-3,1.9220635E-3,-1.4047859E-3,3.4692597E-3,-9.368262E-3,1.9933998E-3,-2.025432E-2,-8.483681E-3,9.414581E-4,-6.6585257E-3,-2.2486499E-2,2.606788E-3,-4.706986E-3,1.3884351E-3,3.926754E-5,-7.668341E-3,2.6177287E-3,-3.3842314E-3,5.7252813E-3,1.1711081E-3,1.0366596E-2,-1.1647241E-2,-2.872619E-3],"categories":[],"categories_nodes":[],"categories_segments":[],"categories_sizes":[],"default_left":[0,0,0,0,0,0,0,0,0,0,0,0,0,0,0,0,0,0,0,0,0,0,0,0,0,0,0,0,0,0,0,0,0,0,0,0,0,0,0,0,0,0,0,0,0,0,0,0,0,0,0,0,0,0,0,0,0,0,0,0,0,0,0,0,0,0,0,0,0,0,0,0,0,0,0,0,0,0,0,0,0],"id":14,"left_children":[1,3,5,7,9,11,13,15,17,19,21,-1,23,25,27,29,31,33,35,37,39,41,43,-1,-1,-1,45,47,49,-1,-1,51,53,55,57,59,61,63,65,67,69,-1,-1,71,-1,-1,-1,73,75,77,79,-1,-1,-1,-1,-1,-1,-1,-1,-1,-1,-1,-1,-1,-1,-1,-1,-1,-1,-1,-1,-1,-1,-1,-1,-1,-1,-1,-1,-1,-1],"loss_changes":[1.03613384E-1,8.956866E-2,8.914743E-2,1.17472306E-1,9.549511E-2,3.697704E-2,7.410181E-2,1.2173636E-1,9.69937E-2,8.5189044E-2,7.852918E-2,0E0,2.0706913E-4,3.014687E-2,7.487854E-2,7.2932392E-3,5.6310724E-2,1.0277003E-1,6.979929E-2,8.0309875E-2,1.1074424E-1,1.0614544E-3,7.6183593E-3,0E0,0E0,0E0,2.5072675E-3,4.6320826E-2,1.096932E-1,0E0,0E0,1.677053E-2,4.7626317E-2,1.6188103E-1,1.1299603E-1,8.9870736E-2,6.3114E-2,4.327766E-2,7.37952E-2,8.577463E-2,4.6269603E-2,0E0,0E0,1.3695861E-4,0E0,0E0,0E0,5.0322916E-2,4.4018E-2,1.0384414E-2,2.3543142E-2,0E0,0E0,0E0,0E0,0E0,0E0,0E0,0E0,0E0,0E0,0E0,0E0,0E0,0E0,0E0,0E0,0E0,0E0,0E0,0E0,0E0,0E0,0E0,0E0,0E0,0E0,0E0,0E0,0E0,0E0],"parents":[2147483647,0,0,1,1,2,2,3,3,4,4,5,5,6,6,7,7,8,8,9,9,10,10,12,12,13,13,14,14,15,15,16,16,17,17,18,18,19,19,20,20,21,21,22,22,26,26,27,27,28,28,31,31,32,32,33,33,34,34,35,35,36,36,37,37,38,38,39,39,40,40,43,43,47,47,48,48,49,49,50,50],"right_children":[2,4,6,8,10,12,14,16,18,20,22,-1,24,26,28,30,32,34,36,38,40,42,44,-1,-1,-1,46,48,50,-1,-1,52,54,56,58,60,62,64,66,68,70,-1,-1,72,-1,-1,-1,74,76,78,80,-1,-1,-1,-1,-1,-1,-1,-1,-1,-1,-1,-1,-1,-1,-1,-1,-1,-1,-1,-1,-1,-1,-1,-1,-1,-1,-1,-1,-1,-1],"split_conditions":[7.8782004E-1,1E0,2.3100686E-1,9.090909E-2,8.063867E-1,4.3333334E-1,3.8633856E-1,3.3333334E-1,6.666667E-1,7.097142E-1,6.449264E-1,-1.519979E-2,6.13956E-1,8.333333E-1,8.089443E-1,5.4394E-1,6.257415E-1,5.619237E-1,7.0019466E-1,1.884214E-1,6.33068E-1,4.6544486E-1,8.333333E-1,1.5810013E-3,-9.448826E-5,-1.31598115E-2,5.213128E-1,5.5931264E-1,5.5811137E-1,-1.5690854E-2,-4.9432665E-3,4.1738126E-1,7.395768E-1,7E-1,6.069514E-1,6.440442E-1,8.928756E-1,1.4069502E-1,6.666667E-2,6.864966E-1,6.809708E-1,-4.8752637E-3,-1.7902715E-2,8.0555874E-1,-5.327335E-3,-1.595828E-3,3.535083E-3,4.846184E-1,2.637327E-1,7.2727275E-1,6.593585E-1,-5.787143E-3,2.1522583E-3,-3.2533058E-3,-1.4865908E-2,-6.616203E-4,-7.679046E-3,-2.1381935E-3,1.4849851E-3,1.9220635E-3,-1.4047859E-3,3.4692597E-3,-9.368262E-3,1.9933998E-3,-2.025432E-2,-8.483681E-3,9.414581E-4,-6.6585257E-3,-2.2486499E-2,2.606788E-3,-4.706986E-3,1.3884351E-3,3.926754E-5,-7.668341E-3,2.6177287E-3,-3.3842314E-3,5.7252813E-3,1.1711081E-3,1.0366596E-2,-1.1647241E-2,-2.872619E-3],"split_indices":[196,29,154,143,182,2,112,138,187,119,21,0,0,1,140,168,133,168,14,203,42,0,23,0,0,0,0,42,126,0,0,56,147,93,203,168,161,7,191,63,189,0,0,21,0,0,0,203,0,3,14,0,0,0,0,0,0,0,0,0,0,0,0,0,0,0,0,0,0,0,0,0,0,0,0,0,0,0,0,0,0],"split_type":[0,0,0,0,0,0,0,0,0,0,0,0,0,0,0,0,0,0,0,0,0,0,0,0,0,0,0,0,0,0,0,0,0,0,0,0,0,0,0,0,0,0,0,0,0,0,0,0,0,0,0,0,0,0,0,0,0,0,0,0,0,0,0,0,0,0,0,0,0,0,0,0,0,0,0,0,0,0,0,0,0],"sum_hessian":[1.415E3,1.264E3,1.51E2,1.08E3,1.84E2,5E0,1.46E2,8.2E1,9.98E2,1.71E2,1.3E1,3E0,2E0,5E0,1.41E2,9E0,7.3E1,5.27E2,4.71E2,1.18E2,5.3E1,7E0,6E0,1E0,1E0,3E0,2E0,1.22E2,1.9E1,7E0,2E0,2.7E1,4.6E1,1.52E2,3.75E2,3.29E2,1.42E2,3E0,1.15E2,2E1,3.3E1,1E0,6E0,4E0,2E0,1E0,1E0,2.7E1,9.5E1,6E0,1.3E1,2E0,2.5E1,4.3E1,3E0,1.05E2,4.7E1,1.32E2,2.43E2,1.87E2,1.42E2,1.39E2,3E0,1E0,2E0,8E0,1.07E2,1.6E1,4E0,1.5E1,1.8E1,3E0,1E0,5E0,2.2E1,5E0,9E1,2E0,4E0,6E0,7E0],"tree_param":{"num_deleted":"0","num_feature":"210","num_nodes":"81","size_leaf_vector":"1"}},{"base_weights":[-1.058559E-3,-7.5197597E-3,8.240275E-3,1.5576875E-2,-1.1602258E-2,1.8812401E-2,-5.5402387E-3,5.372477E-3,8.539633E-2,1.8713893E-2,-1.5313705E-2,-3.889081E-2,2.2872979E-2,-4.8161205E-2,2.6898074E-3,3.3270754E-2,-2.0694409E-2,1.2141589E-1,-1.812988E-2,3.0574469E-2,-7.561434E-2,-2.3412509E-2,4.318966E-3,4.0502584E-4,-1.437472E-1,-4.757133E-2,2.6641702E-2,-6.4044595E-2,7.9008125E-2,-5.967093E-2,9.461235E-3,1.9897582E-2,1.20219536E-1,2.1169012E-2,-7.680089E-2,1.3310254E-1,4.198843E-3,6.1625093E-3,-5.764972E-3,-2.119419E-2,5.0276402E-2,-1.048595E-1,7.917345E-3,-3.923052E-2,-6.014159E-3,-1.4769573E-3,8.1562944E-2,3.937595E-2,-4.8359256E-2,-1.6915906E-2,-8.343965E-4,-1.5202559E-2,-1.1772229E-2,7.284709E-2,2.205968E-2,-2.9374892E-2,-1.3382523E-1,-5.607963E-4,1.01564145E-2,-1.12648614E-1,-1.055028E-2,-8.916461E-3,2.7741393E-2,9.3723333E-4,9.201227E-3,1.3527724E-2,1.4936656E-3,9.778815E-3,-1.0325402E-3,2.8803905E-3,-1.0464228E-2,3.5733848E-3,1.3995086E-2,-3.915588E-4,1.81984E-3,-1.3808899E-2,-5.3426786E-5,9.284513E-3,1.4781331E-3,-3.096203E-3,-1.2433165E-2,3.331303E-3,-4.6133706E-3,-2.5882372E-3,1.3544675E-3,2.9437363E-4,-9.357432E-3,1.3515814E-2,4.2725285E-3,-1.2975335E-3,5.408569E-3,-1.2749791E-3,-8.078127E-3,2.5769584E-3,-7.6993047E-3,9.639754E-3,3.196944E-3,2.7516892E-3,-1.1694938E-3,-6.4785144E-4,-1.5368533E-2,-1.5358353E-2,-2.3355852E-3,-3.3845485E-3,-1.4158632E-2,-5.1134527E-3,1.6133658E-3,4.5643895E-4,-6.449913E-3,1.7779041E-3,8.101698E-3],"categories":[],"categories_nodes":[],"categories_segments":[],"categories_sizes":[],"default_left":[0,0,0,0,0,0,0,0,0,0,0,0,0,0,0,0,0,0,0,0,0,0,0,0,0,0,0,0,0,0,0,0,0,0,0,0,0,0,0,0,0,0,0,0,0,0,0,0,0,0,0,0,0,0,0,0,0,0,0,0,0,0,0,0,0,0,0,0,0,0,0,0,0,0,0,0,0,0,0,0,0,0,0,0,0,0,0,0,0,0,0,0,0,0,0,0,0,0,0,0,0,0,0,0,0,0,0,0,0,0,0],"id":15,"left_children":[1,3,5,7,9,11,13,15,17,19,21,23,25,27,29,31,33,35,37,39,41,43,45,47,49,51,53,55,57,59,61,63,65,67,69,71,-1,73,-1,75,77,79,-1,81,83,85,87,89,91,-1,-1,-1,93,95,97,99,101,-1,-1,103,105,107,109,-1,-1,-1,-1,-1,-1,-1,-1,-1,-1,-1,-1,-1,-1,-1,-1,-1,-1,-1,-1,-1,-1,-1,-1,-1,-1,-1,-1,-1,-1,-1,-1,-1,-1,-1,-1,-1,-1,-1,-1,-1,-1,-1,-1,-1,-1,-1,-1],"loss_changes":[8.513755E-2,7.900882E-2,8.474972E-2,8.931185E-2,8.028601E-2,7.797702E-2,8.8874996E-2,8.141007E-2,6.1864756E-2,8.957726E-2,1.0090785E-1,9.070744E-2,8.303681E-2,8.787513E-2,9.0508334E-2,6.0398098E-2,1.3785672E-1,5.5501163E-3,5.155423E-3,7.246157E-2,4.904322E-2,1.2333213E-1,8.3392695E-2,3.4210805E-2,1.9233622E-2,5.804022E-2,6.042525E-2,8.558203E-2,1.0112576E-2,5.345978E-2,6.5085165E-2,3.5570826E-2,9.07664E-3,8.3054245E-2,7.6518714E-2,1.667127E-3,0E0,5.5645296E-4,0E0,4.822697E-2,7.56876E-2,7.6619834E-3,0E0,1.19220465E-1,8.3899364E-2,7.1116805E-2,2.1284983E-2,8.402518E-3,8.206302E-3,0E0,0E0,0E0,3.381468E-2,2.194807E-2,4.9689054E-2,7.300708E-2,2.2605166E-2,0E0,0E0,1.8011749E-2,1.3820358E-2,7.297665E-2,5.004236E-2,0E0,0E0,0E0,0E0,0E0,0E0,0E0,0E0,0E0,0E0,0E0,0E0,0E0,0E0,0E0,0E0,0E0,0E0,0E0,0E0,0E0,0E0,0E0,0E0,0E0,0E0,0E0,0E0,0E0,0E0,0E0,0E0,0E0,0E0,0E0,0E0,0E0,0E0,0E0,0E0,0E0,0E0,0E0,0E0,0E0,0E0,0E0,0E0],"parents":[2147483647,0,0,1,1,2,2,3,3,4,4,5,5,6,6,7,7,8,8,9,9,10,10,11,11,12,12,13,13,14,14,15,15,16,16,17,17,18,18,19,19,20,20,21,21,22,22,23,23,24,24,25,25,26,26,27,27,28,28,29,29,30,30,31,31,32,32,33,33,34,34,35,35,37,37,39,39,40,40,41,41,43,43,44,44,45,45,46,46,47,47,48,48,52,52,53,53,54,54,55,55,56,56,59,59,60,60,61,61,62,62],"right_children":[2,4,6,8,10,12,14,16,18,20,22,24,26,28,30,32,34,36,38,40,42,44,46,48,50,52,54,56,58,60,62,64,66,68,70,72,-1,74,-1,76,78,80,-1,82,84,86,88,90,92,-1,-1,-1,94,96,98,100,102,-1,-1,104,106,108,110,-1,-1,-1,-1,-1,-1,-1,-1,-1,-1,-1,-1,-1,-1,-1,-1,-1,-1,-1,-1,-1,-1,-1,-1,-1,-1,-1,-1,-1,-1,-1,-1,-1,-1,-1,-1,-1,-1,-1,-1,-1,-1,-1,-1,-1,-1,-1,-1],"split_conditions":[6.363636E-1,4.4129708E-1,6.877661E-1,7.289211E-1,4.1338545E-1,6.666667E-2,5.5811137E-1,6.358103E-1,6.425202E-1,7.8550494E-1,6.8238944E-1,8.333333E-1,6.666667E-2,8.3211774E-1,1E-1,7.2958636E-1,5.6666666E-1,6.826161E-1,7.625945E-1,5.119087E-1,4.5454547E-1,6.666667E-1,7.6976115E-1,6.877661E-1,7.4659085E-1,4.950729E-1,4.4944206E-1,7.413026E-1,2.5857466E-1,6.7799836E-1,7.1456915E-1,7.443658E-1,5.6666666E-1,5.4499334E-1,6.666667E-2,4.5614418E-1,4.198843E-3,4.3333334E-1,-5.764972E-3,3.4006876E-1,5E-1,4.2032138E-1,7.917345E-3,3.2433513E-1,6.666667E-1,8.105954E-1,3.3333334E-1,5.643442E-1,8.004229E-1,-1.6915906E-2,-8.343965E-4,-1.5202559E-2,6.275381E-1,8.333333E-1,9E-1,7.8953445E-1,1E0,-5.607963E-4,1.01564145E-2,5.963011E-1,6.3933736E-1,8.148817E-1,1E0,9.3723333E-4,9.201227E-3,1.3527724E-2,1.4936656E-3,9.778815E-3,-1.0325402E-3,2.8803905E-3,-1.0464228E-2,3.5733848E-3,1.3995086E-2,-3.915588E-4,1.81984E-3,-1.3808899E-2,-5.3426786E-5,9.284513E-3,1.4781331E-3,-3.096203E-3,-1.2433165E-2,3.331303E-3,-4.6133706E-3,-2.5882372E-3,1.3544675E-3,2.9437363E-4,-9.357432E-3,1.3515814E-2,4.2725285E-3,-1.2975335E-3,5.408569E-3,-1.2749791E-3,-8.078127E-3,2.5769584E-3,-7.6993047E-3,9.639754E-3,3.196944E-3,2.7516892E-3,-1.1694938E-3,-6.4785144E-4,-1.5368533E-2,-1.5358353E-2,-2.3355852E-3,-3.3845485E-3,-1.4158632E-2,-5.1134527E-3,1.6133658E-3,4.5643895E-4,-6.449913E-3,1.7779041E-3,8.101698E-3],"split_indices":[87,77,119,28,42,51,168,140,21,203,42,8,121,196,205,63,114,182,0,28,3,8,189,140,28,175,91,112,0,112,70,91,2,7,170,7,0,2,0,203,58,14,0,105,5,119,1,35,140,0,0,0,147,1,135,21,22,0,0,112,84,168,15,0,0,0,0,0,0,0,0,0,0,0,0,0,0,0,0,0,0,0,0,0,0,0,0,0,0,0,0,0,0,0,0,0,0,0,0,0,0,0,0,0,0,0,0,0,0,0,0],"split_type":[0,0,0,0,0,0,0,0,0,0,0,0,0,0,0,0,0,0,0,0,0,0,0,0,0,0,0,0,0,0,0,0,0,0,0,0,0,0,0,0,0,0,0,0,0,0,0,0,0,0,0,0,0,0,0,0,0,0,0,0,0,0,0,0,0,0,0,0,0,0,0,0,0,0,0,0,0,0,0,0,0,0,0,0,0,0,0,0,0,0,0,0,0,0,0,0,0,0,0,0,0,0,0,0,0,0,0,0,0,0,0],"sum_hessian":[1.415E3,8.35E2,5.8E2,1.25E2,7.1E2,3.28E2,2.52E2,1.1E2,1.5E1,7.7E1,6.33E2,2.1E1,3.07E2,4E1,2.12E2,5.3E1,5.7E1,1.1E1,4E0,6.9E1,8E0,4.48E2,1.85E2,1.6E1,5E0,1.5E1,2.92E2,3.6E1,4E0,2E1,1.92E2,4.7E1,6E0,3.3E1,2.4E1,9E0,2E0,3E0,1E0,1.9E1,5E1,7E0,1E0,2.34E2,2.14E2,1.73E2,1.2E1,9E0,7E0,4E0,1E0,3E0,1.2E1,2.5E1,2.67E2,2.5E1,1.1E1,1E0,3E0,9E0,1.1E1,9.6E1,9.6E1,4.2E1,5E0,5E0,1E0,9E0,2.4E1,5E0,1.9E1,1E0,8E0,2E0,1E0,2E0,1.7E1,2.2E1,2.8E1,2E0,5E0,2E1,2.14E2,1.06E2,1.08E2,1.66E2,7E0,4E0,8E0,2E0,7E0,4E0,3E0,8E0,4E0,1.5E1,1E1,2.3E2,3.7E1,2.2E1,3E0,9E0,2E0,3E0,6E0,4E0,7E0,7.8E1,1.8E1,8.2E1,1.4E1],"tree_param":{"num_deleted":"0","num_feature":"210","num_nodes":"111","size_leaf_vector":"1"}},{"base_weights":[-9.7453955E-4,2.0465201E-3,-1.9036569E-2,-6.938614E-3,1.1561202E-2,2.695514E-2,-2.8448837E-2,-2.6221415E-2,1.1662763E-3,1.6738843E-2,-1.4286885E-2,4.4103645E-2,-9.58813E-3,-4.5436073E-2,-1.9095208E-3,-7.971515E-3,-7.03467E-2,3.7195066E-3,-7.159343E-2,8.281597E-3,3.5601884E-2,3.9818432E-2,-2.7634628E-2,1.802682E-2,7.3282905E-2,-6.672145E-3,8.510679E-3,-1.2827945E-1,-3.4136545E-2,2.0093443E-2,-3.967824E-2,3.8664292E-3,-7.445732E-2,-3.488651E-2,-1.5238424E-1,7.366664E-3,-3.6097303E-2,-1.3505161E-1,8.139238E-4,-3.4294706E-2,1.3576393E-2,6.829524E-2,2.3713952E-2,6.1685324E-2,-9.603696E-3,-1.3230255E-1,-1.8892733E-2,2.2517869E-3,2.9576622E-2,1.35246515E-2,1.0549839E-2,-1.6139582E-2,2.1380732E-2,-1.606768E-1,-2.3315527E-2,-4.462164E-3,-7.434886E-2,7.600837E-2,7.109752E-3,-1.5788553E-2,-1.3207926E-1,1.3406904E-3,-8.581861E-3,3.697301E-3,-1.0462572E-2,7.0175417E-3,-6.006179E-3,-4.831243E-3,-2.0999609E-2,-1.5147484E-3,1.7963728E-3,-1.911677E-2,-2.1352933E-3,-1.7385582E-2,-1.2425999E-3,2.7037899E-3,-5.1905336E-3,-1.9209096E-3,-1.5772013E-2,2.3610143E-4,3.6432154E-3,-2.049798E-3,7.6048695E-3,-5.4386547E-3,2.8601706E-3,3.710335E-3,9.851221E-3,2.2547052E-3,-3.935352E-3,1.5732348E-4,-1.5939236E-2,-3.946229E-3,1.5095605E-3,8.802856E-4,-9.4172556E-4,1.1837085E-3,3.3516956E-3,1.0131598E-4,1.6399234E-3,-2.3449243E-3,-5.8866147E-4,5.593022E-4,2.657721E-3,-4.6635377E-3,-1.6910257E-2,1.0525923E-3,-6.2419935E-3,7.2699913E-4,-9.953107E-3,-1.134391E-2,-4.2418638E-4,8.984964E-3,-1.044026E-3,-9.0915425E-4,5.0142272E-3,-9.819058E-3,-1.9467316E-4,-1.9976139E-2,-2.0370723E-3],"categories":[],"categories_nodes":[],"categories_segments":[],"categories_sizes":[],"default_left":[0,0,0,0,0,0,0,0,0,0,0,0,0,0,0,0,0,0,0,0,0,0,0,0,0,0,0,0,0,0,0,0,0,0,0,0,0,0,0,0,0,0,0,0,0,0,0,0,0,0,0,0,0,0,0,0,0,0,0,0,0,0,0,0,0,0,0,0,0,0,0,0,0,0,0,0,0,0,0,0,0,0,0,0,0,0,0,0,0,0,0,0,0,0,0,0,0,0,0,0,0,0,0,0,0,0,0,0,0,0,0,0,0,0,0,0,0,0,0],"id":16,"left_children":[1,3,5,7,9,11,13,15,17,19,21,23,25,27,29,31,33,35,37,39,41,43,45,47,49,-1,51,53,55,57,59,61,63,65,67,69,71,73,75,77,79,81,83,85,87,89,91,93,95,97,-1,99,101,103,105,107,109,111,113,115,117,-1,-1,-1,-1,-1,-1,-1,-1,-1,-1,-1,-1,-1,-1,-1,-1,-1,-1,-1,-1,-1,-1,-1,-1,-1,-1,-1,-1,-1,-1,-1,-1,-1,-1,-1,-1,-1,-1,-1,-1,-1,-1,-1,-1,-1,-1,-1,-1,-1,-1,-1,-1,-1,-1,-1,-1,-1,-1],"loss_changes":[7.730508E-2,1.0386593E-1,8.8642776E-2,9.77087E-2,7.920008E-2,2.2356058E-2,7.6103434E-2,1.484164E-1,8.219188E-2,7.8193605E-2,7.259658E-2,1.6940597E-2,1.2976385E-2,9.203836E-2,5.647586E-2,1.0417918E-1,1.5177345E-1,6.227407E-2,6.903251E-2,7.733819E-2,5.745624E-2,2.2206571E-2,7.070012E-2,2.484179E-3,1.9749727E-2,0E0,3.5175774E-3,3.7060365E-2,1.0944958E-1,3.067683E-2,5.3100444E-2,9.783765E-2,7.1101815E-2,1.0736843E-1,8.578688E-2,9.3796976E-2,7.822895E-2,3.5906777E-2,1.2463479E-2,6.772434E-2,7.784015E-2,2.9097006E-2,4.4691704E-2,9.018756E-3,7.582659E-3,2.201078E-2,5.303008E-2,6.1801163E-4,1.6245386E-4,1.632116E-4,0E0,1.6174617E-4,4.2563654E-4,7.6182187E-4,5.950427E-3,6.0953196E-2,1.06398255E-1,1.0510527E-2,2.5554439E-2,2.3761326E-2,3.373407E-2,